{"layers":[{"out_depth":1,"out_sx":24,"out_sy":24,"layer_type":"input"},{"sx":5,"sy":5,"stride":1,"in_depth":1,"out_depth":8,"out_sx":24,"out_sy":24,"layer_type":"conv","l1_decay_mul":0,"l2_decay_mul":1,"pad":2,"filters":[{"sx":5,"sy":5,"depth":1,"w":{"0":-0.1205610469260034,"1":0.03691043795697211,"2":0.17154112609334793,"3":0.3795381122714574,"4":0.15230075234466772,"5":0.07965890731643313,"6":0.05593195856518852,"7":0.12211890929022208,"8":0.37046733508693475,"9":0.0448363940376306,"10":-0.4108999188436014,"11":-0.0279562017627286,"12":-0.10531694379737253,"13":0.18909087342335515,"14":0.06310114681695592,"15":-0.41692312807985704,"16":-0.13918141881009435,"17":0.020177175072081575,"18":-0.018711746704717716,"19":0.28300237277433926,"20":-0.046763988633178294,"21":-0.21863100161595095,"22":0.007707358935042823,"23":-0.14784751398237955,"24":0.24233620120185914}},{"sx":5,"sy":5,"depth":1,"w":{"0":-0.5497901753706662,"1":0.22987308718102045,"2":0.22447011744417442,"3":-0.23501979377057128,"4":0.37391859663971294,"5":-0.21371275056492717,"6":0.05418390573922655,"7":0.1533988218392794,"8":0.08404352144498704,"9":0.599459950179871,"10":-0.2965072328005195,"11":0.22020808039993653,"12":0.11931491397536834,"13":-0.29711665134838444,"14":0.13954025736241574,"15":0.29006705823674106,"16":0.3426242162842335,"17":0.06241949211272269,"18":-0.14397009149890092,"19":-0.22677875715860746,"20":-0.0352559865698966,"21":-0.16691004060323714,"22":0.2736856781206833,"23":-0.23327286412146223,"24":0.17226426174306994}},{"sx":5,"sy":5,"depth":1,"w":{"0":0.04344162180508817,"1":-0.4123863470357136,"2":-0.2842205162973509,"3":-0.6999641379574809,"4":-0.08721618237833273,"5":0.39586031084624357,"6":0.13224793593481873,"7":-0.17425823732303336,"8":-0.8104207671393188,"9":-0.6516374412358888,"10":0.1686128823236139,"11":0.13025907425129424,"12":0.10190428833556904,"13":0.06811649040466207,"14":-0.508447972275522,"15":0.240126021772041,"16":0.5666948004352507,"17":0.34425388965677445,"18":0.08066867018965375,"19":0.19102601734737282,"20":0.060208532446435925,"21":0.15403521434431622,"22":0.433299153910065,"23":0.4623758943419044,"24":0.24631044607213465}},{"sx":5,"sy":5,"depth":1,"w":{"0":-0.1422973373324546,"1":0.40794884452636393,"2":-0.08575884865244723,"3":-0.24310931947154193,"4":-0.19383856426648163,"5":0.5389949417644302,"6":0.44399831188557454,"7":-0.15000456751869418,"8":-0.2868312183276499,"9":-0.30328808957101056,"10":0.5237537409851764,"11":0.3990945917342518,"12":-0.564443254813993,"13":-0.46165275329441546,"14":-0.6851800157691331,"15":0.14525695316239723,"16":0.24974403278868074,"17":0.06926589904758117,"18":-0.15754190034234508,"19":-0.628885682141195,"20":0.7790523739301036,"21":0.486437631397173,"22":0.17909994172945604,"23":-0.5360349125039492,"24":-0.29859018261494547}},{"sx":5,"sy":5,"depth":1,"w":{"0":0.2762088682133293,"1":0.1433037882874468,"2":0.8978887058795113,"3":-0.040950599667530195,"4":-0.1336157674869304,"5":0.24630493383165758,"6":0.306192730233802,"7":-0.09200581401408274,"8":-0.5392158958058818,"9":-0.16136271956182088,"10":0.4647673030561292,"11":-0.2700333516738552,"12":-0.5787823298559229,"13":0.012692062573701705,"14":-0.02438359564954596,"15":-0.10166915718087394,"16":-0.2187250222569896,"17":0.14217615549167703,"18":-0.005903698928143925,"19":0.2967943555844644,"20":-0.2625860985749818,"21":-0.04775954120343386,"22":0.10892138549240614,"23":-0.11994567798052778,"24":-0.319889894896001}},{"sx":5,"sy":5,"depth":1,"w":{"0":0.600351665204352,"1":0.10483954032878512,"2":-0.009035736283617203,"3":0.019835889264760643,"4":-0.15470850889450669,"5":0.0582301807371098,"6":0.25519547637015366,"7":0.1930219214096084,"8":0.5064525108499018,"9":0.4162302621640435,"10":0.0243997426565335,"11":0.09764012996279732,"12":0.4007710650551301,"13":0.21967405980711854,"14":0.3041622872990692,"15":-0.16883833114180935,"16":-0.07435739054413233,"17":-0.040523638437500745,"18":-0.3583187758508782,"19":-0.4399606065052386,"20":-0.5991901489923109,"21":-0.6244283160555821,"22":-0.7468772091397385,"23":-0.44486193390961826,"24":-0.2938576089348877}},{"sx":5,"sy":5,"depth":1,"w":{"0":0.32108279290778885,"1":-0.24628324156029685,"2":0.2469826814760451,"3":0.24338810291124122,"4":0.45244821569529164,"5":-0.17855630650513477,"6":0.003444853120551831,"7":0.12514204065890663,"8":0.561061166287125,"9":0.7119818639394169,"10":-0.44255470204539604,"11":-0.2452408076013002,"12":-0.3800935779551883,"13":-0.13105718027558597,"14":-0.02595796626007717,"15":-0.1321444658036897,"16":-0.7501380137947907,"17":-0.4795901112821091,"18":-0.6620507793886572,"19":-0.25857778094227535,"20":-0.05127183546826404,"21":-0.34579102571874354,"22":-0.5596215039997405,"23":-0.3241638635273402,"24":-0.1806922053684984}},{"sx":5,"sy":5,"depth":1,"w":{"0":0.08274578146429827,"1":-0.34982081281280836,"2":-0.08176047306185383,"3":0.19571963244242377,"4":-0.3855760576244249,"5":0.4044664935546006,"6":0.3123020502754272,"7":-0.4570537278971713,"8":0.31620659973507614,"9":0.35250183228548576,"10":0.12385938925096925,"11":0.0849148420082268,"12":-0.08360686864491625,"13":0.43356300922727425,"14":0.6622201231538838,"15":-0.06971711541611701,"16":0.23327188620282252,"17":0.04412943834041755,"18":-0.20217991939492372,"19":-0.06679279698817309,"20":0.05618349610285486,"21":-0.21031421891326488,"22":-0.49408568409234127,"23":-0.16968301167337269,"24":-0.37482532201977026}}],"biases":{"sx":1,"sy":1,"depth":8,"w":{"0":-0.05241287847102613,"1":-0.2963040123937128,"2":-0.04983261388871557,"3":0.002222424086923848,"4":0.057880159438168315,"5":0.06645942543298326,"6":0.1677312657940821,"7":-0.1060432655891725}}},{"out_depth":8,"out_sx":24,"out_sy":24,"layer_type":"relu"},{"sx":2,"sy":2,"stride":2,"in_depth":8,"out_depth":8,"out_sx":12,"out_sy":12,"layer_type":"pool","pad":0},{"sx":5,"sy":5,"stride":1,"in_depth":8,"out_depth":16,"out_sx":12,"out_sy":12,"layer_type":"conv","l1_decay_mul":0,"l2_decay_mul":1,"pad":2,"filters":[{"sx":5,"sy":5,"depth":8,"w":{"0":0.13043834326945578,"1":0.025772123375290123,"2":-0.09028648058041469,"3":-0.14711517455802328,"4":0.00920349408790357,"5":-0.019334065571103256,"6":-0.14080488855594686,"7":0.1015265539838941,"8":0.07630549112707008,"9":0.012929262335396862,"10":-0.3133497979484122,"11":0.0068667735664043736,"12":-0.01644691894427744,"13":0.1332079181270574,"14":0.23549160144981904,"15":-0.00016932787757154661,"16":0.21461850058204776,"17":0.09539223045974375,"18":-0.12469296282711326,"19":-0.09895083952170637,"20":0.18988532789202023,"21":0.06552366803579593,"22":0.014331759812516158,"23":0.07086111727207532,"24":0.14988963222942783,"25":0.06507794050616257,"26":0.3176876069595496,"27":0.14674094804925994,"28":0.1134749072147992,"29":-0.39419480581449384,"30":-0.4017699280746398,"31":-0.04062073442477212,"32":-0.20098445307607873,"33":-0.059190343113157656,"34":0.20226136133010061,"35":0.2787757043753373,"36":0.02715939176386582,"37":-0.48860438555859304,"38":-0.5064182433716066,"39":0.021456853221036288,"40":-0.12048149637560825,"41":-0.025790665672102413,"42":-0.13922818861982716,"43":-0.04881197569296654,"44":-0.16439843217752365,"45":0.049401509890616084,"46":0.004039573958715975,"47":-0.0642202286600667,"48":0.050923395298847395,"49":-0.11645458137476275,"50":-0.3131409708163886,"51":-0.17331168186973908,"52":-0.1153153214719885,"53":0.14439362330320316,"54":0.20091032107959517,"55":-0.07273098264686821,"56":0.13398850619364364,"57":0.11862351898935485,"58":-0.26966238786357277,"59":-0.2814999761297946,"60":0.05559936085892625,"61":0.03637061081730546,"62":0.21600792233767938,"63":0.04765392591668029,"64":0.15533568269455061,"65":0.010984029801182984,"66":-0.06177577213442399,"67":-0.031113583257182848,"68":-0.038747299318964985,"69":-0.10487157743131346,"70":0.025387094365466593,"71":-0.05594987572365667,"72":0.06083075617190346,"73":0.020356087320837834,"74":0.2978090173576631,"75":0.25314498019825316,"76":-0.0691960026408858,"77":-0.15780944882427944,"78":0.03102847476265053,"79":0.09640881736471703,"80":-0.09336148361270263,"81":-0.2525724104512298,"82":-0.13864430006570128,"83":-0.17650456223822822,"84":-0.043295479682210584,"85":-0.09675491086357606,"86":-0.017576610111460004,"87":-0.18933683876780372,"88":-0.05826435017689662,"89":-0.14445238836506902,"90":-0.1288611940858687,"91":-0.04978234767981591,"92":-0.11482704472541316,"93":-0.12632528539689178,"94":-0.12829152770350832,"95":-0.2589812392218023,"96":0.08107377373767673,"97":-0.12915318780402296,"98":-0.43545517536510164,"99":-0.09975679850747403,"100":-0.10038376890192777,"101":-0.21945708264255703,"102":0.10344521772272738,"103":-0.07994357233601632,"104":0.11319348436235026,"105":-0.07413992741592855,"106":-0.38423301167455864,"107":-0.2838655277220439,"108":-0.26540059251203063,"109":0.07491955044972713,"110":0.13943468179826998,"111":0.05339515469389996,"112":0.15268120684013692,"113":-0.025489628784059894,"114":0.3340734946024649,"115":0.024565036128323812,"116":-0.1287514270479323,"117":0.07555545782149128,"118":-0.02985007452300862,"119":0.20378497796212833,"120":-0.0500839740379718,"121":-0.1711963263912092,"122":-0.11918187830982833,"123":-0.22437036281653547,"124":-0.3213576023220131,"125":-0.204990741302468,"126":-0.11418501571073672,"127":-0.27906395608834716,"128":-0.15368375158378186,"129":-0.21148237517659288,"130":0.16122373575412055,"131":-0.03432818974267286,"132":-0.05303628701418023,"133":-0.19776648155754825,"134":-0.18955381901446966,"135":-0.17826096261442145,"136":-0.0787217200664393,"137":0.01831592569670835,"138":-0.030797474840347425,"139":-0.19526299650116796,"140":-0.2255687838093696,"141":-0.20436821827737894,"142":0.01696909966257289,"143":-0.03415711940360658,"144":0.18014632486527293,"145":-0.03962215353820122,"146":-0.3792932237740752,"147":-0.4329398732465256,"148":-0.35646674361703906,"149":-0.1491362981179715,"150":0.12537042636075216,"151":-0.051720939559264885,"152":0.17055994351144685,"153":0.08656859007629983,"154":-0.1450853867655202,"155":-0.10047641155497443,"156":-0.24984252875334642,"157":0.18895622717977972,"158":0.3381423627844036,"159":0.08278998727627797,"160":-0.12662563477281702,"161":0.03445636265115939,"162":0.08602466029595279,"163":-0.017827553298759066,"164":-0.20343834785824058,"165":-0.4073208154356953,"166":-0.0949224765571913,"167":-0.23655292126425215,"168":0.03574442413723097,"169":0.06087032495013795,"170":0.2528478556194713,"171":-0.02735982487296101,"172":-0.0655523554651914,"173":-0.23192979881273829,"174":-0.20249831005160834,"175":-0.06872819767820187,"176":-0.13183468380469146,"177":0.01450369772369586,"178":0.22432358151751414,"179":0.00933240883565443,"180":0.17096574525178165,"181":-0.1255825464574945,"182":-0.5032041183775657,"183":-0.04454855539797948,"184":-0.15224253236168198,"185":-0.04891949175904197,"186":0.038106905321216904,"187":-0.04707256097123253,"188":-0.09148956485249762,"189":-0.13707062600553688,"190":-0.11173506067525503,"191":-0.057068796533682506,"192":0.08235574135069766,"193":0.07462100433817448,"194":0.0190112145504691,"195":0.10584910328482768,"196":-0.08344704137451517,"197":0.03667147690894559,"198":-0.04455085325410454,"199":-0.08028991663108812}},{"sx":5,"sy":5,"depth":8,"w":{"0":-0.3460372774910273,"1":-0.2996151574266445,"2":-0.2586714555111971,"3":-0.23495858681364298,"4":-0.003360566494477664,"5":-0.1763618034744643,"6":-0.12441758074147115,"7":-0.44874371262902785,"8":-0.033637065212497395,"9":-0.10048382940675085,"10":-0.31537899992881735,"11":-0.24912177315742334,"12":-0.3247539762341543,"13":-0.16940868545256882,"14":-0.04336634807550513,"15":-0.18322792087913947,"16":0.15757781657500053,"17":0.24351852462415052,"18":-0.1809550039502709,"19":0.06541803586135021,"20":-0.12688438063190505,"21":-0.3150055685477073,"22":-0.0961643140736493,"23":-0.0029457814630449355,"24":-0.06431682985690093,"25":0.25347195056600647,"26":-0.17698447487773455,"27":0.15295400106870768,"28":0.3756977910985068,"29":0.052872813391406516,"30":-0.31221846423253174,"31":0.05219990354628749,"32":0.05885427303503374,"33":-0.25145287141750683,"34":-0.18358168325762741,"35":-0.03732272427381007,"36":0.2898555215539128,"37":0.1995645640942636,"38":0.027313494461780743,"39":-0.08972157618584749,"40":-0.29942722475180344,"41":-0.14826037170757492,"42":-0.15870190836282827,"43":-0.4532962756065782,"44":-0.3170853700166638,"45":-0.09190257955848669,"46":0.03564214550432362,"47":-0.30304334831696467,"48":-0.05997385203110915,"49":0.0687872014376636,"50":-0.1956519218766671,"51":0.10863374335417289,"52":-0.43922930984895103,"53":-0.16016677079201444,"54":0.09743997474575375,"55":-0.23875837629062033,"56":0.13948801007992306,"57":0.0661090313581223,"58":0.1255036223860508,"59":0.21762378180355796,"60":0.16448138050246133,"61":0.07047738073181849,"62":-0.07203060697972148,"63":0.14586800123341218,"64":-0.13767484777572006,"65":-0.08939433989729717,"66":0.2415898314944215,"67":0.2192010474027158,"68":0.20184633879791627,"69":0.212608111650188,"70":-0.0874327618638498,"71":0.10647803842745514,"72":-0.03115220264625383,"73":-0.1872361550526616,"74":-0.19772904592452267,"75":-0.09178427041542858,"76":-0.04220447658074069,"77":0.06296918474924021,"78":-0.00211405726139463,"79":0.0008974984226694404,"80":-0.1187943414005851,"81":0.00196981640876594,"82":-0.21993169541004948,"83":-0.16285909990607866,"84":-0.4153712269927537,"85":-0.08017036811841216,"86":-0.17780094596011545,"87":-0.1540765315736975,"88":0.09619673417457043,"89":0.03972606398703034,"90":0.06814107375236204,"91":0.14525718206092847,"92":-0.13843462346181812,"93":0.2054274374208334,"94":0.02264940463703288,"95":0.024554768770098177,"96":-0.003222663767707775,"97":0.027840400734200035,"98":0.12962219007369183,"99":0.057537929394937695,"100":0.1499951646186506,"101":0.25684677797007355,"102":0.012535107009073291,"103":0.3516539585829174,"104":-0.09120789386278771,"105":-0.09300323199678609,"106":0.049564302470083504,"107":-0.1034414436259423,"108":0.11697550859310164,"109":0.22134839457560584,"110":0.09996177388577873,"111":0.10413047623207258,"112":-0.22393277761451813,"113":-0.21771098152183066,"114":-0.13590317079178488,"115":-0.2968463190497246,"116":-0.023223934412381596,"117":-0.13116607752564685,"118":-0.1272407852937906,"119":-0.08760885317880984,"120":-0.016729123432698518,"121":0.12062873630074304,"122":-0.20563637011522623,"123":0.08153507077870843,"124":-0.13968402502652064,"125":-0.2381801396360528,"126":-0.20148150682935526,"127":-0.09832915492702222,"128":-0.02720580803183995,"129":0.10311043725053606,"130":-0.020756817055499727,"131":0.20662517378607215,"132":0.14660539728555816,"133":0.13804048758798151,"134":-0.02566871665527212,"135":0.043335641898845534,"136":-0.07640713210812107,"137":-0.04280370870761192,"138":-0.12856344242362028,"139":-0.008524049174738504,"140":0.0859090227755278,"141":0.14050763791793872,"142":0.29500524411026996,"143":0.03723511783706596,"144":0.011533891340677999,"145":-0.3134180889501384,"146":-0.35502402723548176,"147":-0.3400587043380948,"148":-0.07930641216282162,"149":0.09209847767736651,"150":0.055731857684840576,"151":-0.16774122500447503,"152":-0.11291837347124177,"153":-0.43170636414437424,"154":-0.37532232739527743,"155":-0.3163868604667281,"156":0.06744463984640918,"157":0.07542001411051247,"158":-0.03038567656691569,"159":-0.1047869094085385,"160":-0.03716895902490936,"161":0.03805883168975893,"162":-0.0039243490702145015,"163":0.04104122649787962,"164":0.07396230778952485,"165":0.05351603087961297,"166":-0.3171474206881277,"167":-0.12410716310227446,"168":-0.21339160564754406,"169":-0.05724334360675737,"170":-0.023013783337387857,"171":0.01593782104812701,"172":0.16968649734729394,"173":0.15170490099032952,"174":-0.040946568201679946,"175":0.16222689922468017,"176":0.029448054198341504,"177":-0.10771239922931695,"178":0.10221625766513183,"179":-0.015084192404788492,"180":-0.1411729417511464,"181":0.1537580466916324,"182":0.10825683132396366,"183":-0.05698022925044342,"184":-0.09992787390179825,"185":-0.26012708905061394,"186":0.1311753120862642,"187":-0.08116180718854514,"188":-0.1943058368458687,"189":-0.17133994981049042,"190":0.15661904082942107,"191":-0.15144394611792264,"192":-0.1119717547329381,"193":-0.3041417984142465,"194":0.17436025374389483,"195":-0.0967909461385095,"196":0.13180098996019446,"197":0.051604698865472184,"198":0.24655588036082693,"199":-0.07406016964124419}},{"sx":5,"sy":5,"depth":8,"w":{"0":-0.5132002797705596,"1":-0.4248553237964737,"2":0.14172762041885298,"3":-0.04413012835418125,"4":-0.01682611152764521,"5":-0.13378764207918858,"6":-0.0906457642891134,"7":-0.447465348634898,"8":-0.4005977320073279,"9":-0.1795163844739543,"10":0.08210558606168109,"11":-0.20870643633639607,"12":-0.15740756051552457,"13":-0.20397754094692422,"14":-0.03033416441466136,"15":-0.24514962983302838,"16":0.03541455415740971,"17":0.02198797028366973,"18":0.02255353399720924,"19":-0.0062804489560346856,"20":-0.26507960365068783,"21":-0.13696540817813707,"22":-0.06776639165773331,"23":-0.0557807464666123,"24":0.12768126455283318,"25":0.16165037965555684,"26":-0.20337846800881326,"27":-0.30174139185356974,"28":-0.08566791487816292,"29":-0.12686269942388778,"30":0.04572773720866755,"31":0.06106334462542559,"32":0.1197488063095641,"33":0.1889759826223906,"34":-0.40638795604761857,"35":-0.30554186696281915,"36":0.1974803758673447,"37":-0.0800743900921966,"38":-0.2550676944526034,"39":0.17727660456158492,"40":-0.26331627570592103,"41":-0.09828046695068307,"42":0.2754759857034681,"43":0.0494729024878513,"44":-0.2530225371578455,"45":0.29386728632701264,"46":-0.07853680533535914,"47":0.014932694371337825,"48":0.08797573842868403,"49":0.17771015496270887,"50":-0.040245397054011534,"51":-0.11028494998546064,"52":0.008177502935245377,"53":-0.0968597062172252,"54":0.12774388859159228,"55":0.18588766393503936,"56":0.11134515804835506,"57":-0.013556584964299227,"58":-0.06719130907759621,"59":0.060747842473224206,"60":0.08180963723423504,"61":0.05017983748879015,"62":0.07293108337955144,"63":0.06370608301934905,"64":0.022508815256341578,"65":0.21626595380152816,"66":-0.19935749228398852,"67":-0.18009148108713582,"68":-0.027121710709174036,"69":-0.13899884202608354,"70":-0.04800234442492564,"71":-0.08060555649851268,"72":0.12660185151262246,"73":0.11022881208312386,"74":-0.2569833220867834,"75":-0.14160985466469694,"76":0.07217276378642214,"77":0.11727974381956184,"78":-0.07978606408764863,"79":0.08243919556467588,"80":0.40906990655965164,"81":-0.11053000724311604,"82":-0.08292965847258402,"83":-0.09094040491890706,"84":0.18273269663005093,"85":0.3234947204718407,"86":0.2149351225875544,"87":0.1746400457792711,"88":0.1480709960787998,"89":-0.08352240765049267,"90":-0.15749439827874598,"91":0.10081680582766227,"92":0.3253912080325937,"93":0.2401244657066082,"94":0.10405616984987547,"95":0.15031416982672505,"96":0.12411913885836744,"97":-0.15798246428439225,"98":-0.218511635497494,"99":-0.06209007442022618,"100":0.059087461856453465,"101":0.14139882604094206,"102":0.2001413012157988,"103":0.1379882864591222,"104":0.035107532906417445,"105":-0.046936333868217994,"106":-0.2990813863769657,"107":-0.2263188889221321,"108":-0.034244127726877516,"109":0.02541410741043058,"110":0.1643255447057411,"111":0.027787052187279386,"112":0.23082667984121247,"113":0.2111420160873666,"114":-0.23751090351783108,"115":-0.23762713872828226,"116":0.012188677959846381,"117":0.01991636847324634,"118":0.11680704410169132,"119":-0.024328507644705472,"120":-0.1590369167409291,"121":-0.1686216521805473,"122":-0.007018994369382052,"123":-0.10907857087122348,"124":-0.004811122376066086,"125":-0.11031238518693176,"126":0.09610320750831612,"127":-0.1713368072322116,"128":-0.17448476836457347,"129":-0.21516451531258596,"130":-0.01369251004817208,"131":-0.1956803879456108,"132":-0.052376261430055346,"133":-0.043594145347066245,"134":0.07529348780009947,"135":-0.3395752856832991,"136":-0.07855077078424273,"137":-0.18901191914400656,"138":-0.1485210168352056,"139":-0.15561519602076285,"140":-0.0711040750608791,"141":-0.07452377897249031,"142":0.056338840471581025,"143":-0.0433806211242642,"144":-0.10619181604776526,"145":-0.08164227015126309,"146":-0.0005459390796062557,"147":-0.09358973028892466,"148":-0.13772592123336816,"149":0.10071847264517943,"150":-0.05924561390444167,"151":-0.1142949200109913,"152":0.14232234881809105,"153":0.01925036468217986,"154":-0.2277146034229983,"155":-0.1976158407804044,"156":-0.021855912929249263,"157":0.048484244347783645,"158":0.12437442243334959,"159":0.2328389666572933,"160":-0.14598551416917477,"161":-0.2989873450202247,"162":0.13296199000061393,"163":-0.1304445745708168,"164":-0.12640515192230817,"165":-0.17971624488204976,"166":0.022905758685479168,"167":0.06664562403023075,"168":-0.02700549617180775,"169":-0.27060350135005695,"170":0.06627045944057298,"171":-0.04056285991698068,"172":-0.15611033359056745,"173":-0.08662578778987626,"174":-0.13883251016997203,"175":-0.06423134863435291,"176":-0.09827302536154461,"177":-0.1757336966821755,"178":0.28900942424955567,"179":0.06790034585581857,"180":-0.38771499036311086,"181":-0.2209789129379629,"182":-0.16377704576368557,"183":-0.2007911666441289,"184":-0.2001258952140223,"185":0.02500862747679168,"186":0.284291678717226,"187":0.11060665692200927,"188":-0.19644126454245256,"189":-0.10627814727130616,"190":-0.17801119660065734,"191":-0.13888375077892176,"192":0.00382417204577898,"193":-0.030370952255190896,"194":-0.09133225894263129,"195":-0.05387490795077202,"196":0.05827885461017989,"197":0.0796411506139384,"198":0.10655678127495888,"199":-0.022443787348029477}},{"sx":5,"sy":5,"depth":8,"w":{"0":-0.15466061706798018,"1":-0.06165882559228182,"2":-0.1680875808574763,"3":0.0876581003197801,"4":0.1768472701594304,"5":0.028075017900083744,"6":0.1338411716961194,"7":-0.1844629023535232,"8":0.0008098646199144435,"9":-0.2144002755630967,"10":-0.10187879977625956,"11":-0.13347037295929373,"12":0.061015374604923386,"13":0.10350728574711682,"14":0.13228759196410467,"15":-0.09563259096065252,"16":0.15431071708201488,"17":0.03214788025162632,"18":0.21462073707647386,"19":-0.06754230448247082,"20":-0.0788016425082886,"21":-0.30869575786226783,"22":-0.15721560278906227,"23":-0.1810173529367902,"24":-0.04000980913026112,"25":-0.007412674966481712,"26":0.10326599261813718,"27":-0.01044746760809823,"28":-0.12121659366998949,"29":-0.3417818946788719,"30":-0.46005113297171113,"31":-0.045090397251474075,"32":-0.3690358594906224,"33":0.15276102770441005,"34":0.15825518912895778,"35":-0.03138292671587978,"36":-0.1845903775893309,"37":-0.08191839341582713,"38":-0.10064843248450112,"39":-0.122720208618232,"40":-0.027840917073003426,"41":-0.03320814360144247,"42":0.42822510597245483,"43":0.18598280075105425,"44":-0.05382076790156476,"45":-0.06320716413056153,"46":0.017514838796641116,"47":-0.04425932158632335,"48":0.05281292360279924,"49":0.14789775551221016,"50":0.21480199079802015,"51":-0.04789523302277077,"52":-0.31723619110516876,"53":0.06562548047234285,"54":0.27741201155377837,"55":0.19011573782519905,"56":0.01188092748786637,"57":0.1297127748433572,"58":-0.0348991652065175,"59":-0.06192569909054179,"60":-0.030587734155689814,"61":0.13225145942140054,"62":0.015614550761832331,"63":0.05173357911467336,"64":0.04393681693240566,"65":0.07265945551025473,"66":-0.12578258191407501,"67":-0.19443632390592552,"68":0.0076339209707742255,"69":0.14731935380128366,"70":0.10848491424603088,"71":-0.03980863854928643,"72":-0.10044033229450783,"73":0.0885357283916203,"74":-0.019099163196056222,"75":-0.008916942051101495,"76":-0.18343654240222879,"77":-0.09761658745659428,"78":-0.251946713136636,"79":0.1505870646358473,"80":-0.008871688053774255,"81":0.0819573436826916,"82":0.17721154132808042,"83":-0.23920506177420656,"84":0.005376870059877954,"85":0.32663272285423206,"86":0.21697333756439838,"87":0.3703171960675293,"88":0.19653962168387287,"89":0.20619033973059622,"90":-0.11758245758027684,"91":-0.0491816534828672,"92":0.07318837333090243,"93":0.1616863142740455,"94":0.11503806886250834,"95":0.12711318855203846,"96":0.04149181333521971,"97":0.19207671429864562,"98":-0.351037432891619,"99":-0.1010250306226084,"100":0.2985642699072791,"101":0.1460233761987775,"102":0.02691223921560114,"103":0.04854771926512601,"104":0.05136347390790956,"105":0.14471710926491677,"106":-0.4215085461547982,"107":-0.0705601710514114,"108":0.03680589788148326,"109":-0.13830451902381644,"110":-0.21555618339917476,"111":-0.1990720766193241,"112":0.0018476599936805638,"113":0.05843131694204327,"114":-0.1833149449990348,"115":-0.09746791974656971,"116":-0.2427385462942869,"117":-0.17190466006033828,"118":-0.29810229658373216,"119":-0.012429079530060092,"120":0.23730988824333113,"121":-0.22566710715593838,"122":-0.21872801556416882,"123":-0.25057726094712723,"124":0.04293958228076856,"125":0.03489573863843236,"126":0.22479987982240326,"127":-0.06481472249441013,"128":-0.05355203667568133,"129":-0.21365012608618908,"130":-0.1756209693565655,"131":-0.16995013862651465,"132":0.15126353093336406,"133":0.04247007404238714,"134":-0.08356082854932284,"135":-0.21113140808067601,"136":-0.08946828735185543,"137":0.0679174071871088,"138":-0.30535611428545195,"139":0.043059268919379376,"140":0.1516410167132812,"141":-0.24566804204501588,"142":-0.3001769619106735,"143":-0.272979705305002,"144":-0.13869024944166441,"145":0.11912564418210458,"146":-0.1326939869351807,"147":0.0554283122219213,"148":-0.1271977536500674,"149":-0.4616564021766002,"150":-0.18698795008733637,"151":-0.1848001786603837,"152":-0.0480548841542763,"153":0.08248039166085094,"154":-0.10812800798323044,"155":0.07812278043184466,"156":0.01740296590284866,"157":-0.18019574065201596,"158":-0.3148487541202792,"159":-0.05810090912935764,"160":0.08023656976155823,"161":-0.1394440370699448,"162":-0.0186509506947683,"163":0.045711458456694734,"164":-0.06763681295021963,"165":-0.021248846306490415,"166":-0.20555831265197194,"167":-0.24971380015612943,"168":0.04986247701402304,"169":0.14539101774062252,"170":-0.16005361737253665,"171":0.07094341006562671,"172":0.07578410546494804,"173":-0.15872937328057404,"174":-0.3612617491081885,"175":0.0926070068277907,"176":-0.09440817952639236,"177":0.0885918803500381,"178":-0.160710897644248,"179":0.06895177412588185,"180":0.08026042073390464,"181":-0.11349277626255119,"182":-0.19437969266853433,"183":-0.04260519096830857,"184":-0.0812045712551897,"185":0.08123093032554818,"186":-0.03958675333953047,"187":0.008978661656331526,"188":0.1522460060945305,"189":-0.011861814744804964,"190":0.03451663453891321,"191":0.029700562238751543,"192":-0.06807452483006446,"193":-0.004315003208623543,"194":-0.005351554670567722,"195":0.14149238643862294,"196":0.014273707344007758,"197":-0.0008846709269570083,"198":-0.4054120626773504,"199":0.06951053767509505}},{"sx":5,"sy":5,"depth":8,"w":{"0":0.09221257554680275,"1":-0.031716981863239166,"2":0.15739144703952002,"3":0.1911657828082893,"4":0.030794547487163065,"5":0.12857310290068738,"6":0.049729868348794844,"7":0.14624613814713383,"8":0.17225165282906665,"9":-0.12966779632822686,"10":-0.0722500948840865,"11":0.08219142759341057,"12":-0.19531199364885626,"13":0.122715453555005,"14":0.15074214172831243,"15":0.13120482393732344,"16":0.07727001425566034,"17":-0.026797331357285088,"18":-0.4054429788409372,"19":-0.43443887631659417,"20":-0.13118648131524427,"21":0.07098916777133456,"22":-0.10623396455435567,"23":-0.15071635006178583,"24":0.07109617198872585,"25":-0.021872503287279396,"26":-0.2959830978106708,"27":0.013221370916793568,"28":0.022810285658099123,"29":0.008233319561581288,"30":-0.0700061011686346,"31":-0.019879127947771514,"32":0.021065848876727522,"33":-0.020851142921844767,"34":0.1289601901476453,"35":0.17717023458332995,"36":0.061822787948831406,"37":-0.1487220286773133,"38":-0.14826135801841436,"39":0.07693413291839186,"40":0.06095116380969473,"41":0.027838341434544864,"42":0.34442902870244835,"43":0.2682204209192347,"44":-0.09197248225289209,"45":-0.002180273550466969,"46":0.04801158198935789,"47":0.006560221154230594,"48":0.07051435985912426,"49":-0.19912461573952417,"50":-0.07402754849433067,"51":0.13669967445139514,"52":0.11282630894549436,"53":-0.06068046041512046,"54":0.07941498695336861,"55":-0.058825419648827405,"56":0.14286783370714823,"57":-0.11994929791596295,"58":-0.5048620530652701,"59":-0.3838855681800194,"60":-0.08679646079859192,"61":-0.20206992009520922,"62":-0.10457181843417317,"63":-0.24700054160536986,"64":0.14686666361611464,"65":0.049964150225802965,"66":-0.2505170093507121,"67":0.10097896345150056,"68":-0.04099163339394722,"69":-0.13540000569542052,"70":-0.3493343001585002,"71":-0.1630726933590669,"72":0.14996300417354097,"73":0.1892832923926102,"74":-0.016384868008403834,"75":0.30034503795068185,"76":0.10240413825678703,"77":-0.12892039199615224,"78":-0.2220948453572695,"79":0.11322355534494535,"80":-0.05500118093279366,"81":0.20135417742561146,"82":0.1455101159366372,"83":0.1854659124826527,"84":0.031976993682946285,"85":-0.05645217211756011,"86":-0.12283175809233908,"87":-0.05648148626322791,"88":-0.1551422677114612,"89":-0.2478002245898359,"90":-0.2705565785856998,"91":0.14875820382185972,"92":0.12317410172678427,"93":-0.20238804400426355,"94":-0.15520200220549651,"95":-0.1844055393254175,"96":0.12850761489037435,"97":-0.04278954396510161,"98":-0.36829758050370226,"99":-0.34231688123079523,"100":-0.5489443609882055,"101":-0.3544111206255639,"102":-0.1121584760365932,"103":-0.15278717464569938,"104":0.1899476487426387,"105":0.13661267677456704,"106":0.0063380392949631634,"107":0.10807238602175304,"108":-0.014420935062174562,"109":-0.17150852497299338,"110":-0.11723605446434572,"111":0.004982041282233229,"112":0.10198293475126617,"113":0.15778061740370644,"114":0.03207840548325315,"115":0.3304180556887614,"116":0.09906373644009796,"117":-0.15638174212423475,"118":-0.20690645845499128,"119":0.1251840845166908,"120":-0.4248977308729581,"121":-0.04904994324595487,"122":0.02666806615475251,"123":0.24687518803072145,"124":0.05596883563193633,"125":-0.12191537370091012,"126":-0.35348224667639677,"127":-0.11129582971412322,"128":-0.2673961236880175,"129":-0.2303585755158073,"130":-0.20296302283635284,"131":-0.026053865689224496,"132":-0.15957802105684765,"133":-0.20288193619841102,"134":-0.25449417560258325,"135":-0.2117932260819286,"136":0.05462694938874315,"137":0.0648235885399078,"138":-0.2551438207569817,"139":0.021437765578601456,"140":-0.4230315830890956,"141":-0.36950238670174906,"142":0.03483258619871655,"143":-0.08796810142692829,"144":0.23482534021258233,"145":0.17962998400301824,"146":-0.1647291244656099,"147":0.23893172780238744,"148":-0.062323927489240136,"149":-0.2642618621042276,"150":-0.11291796733971272,"151":0.17486451026239405,"152":0.019576390063918397,"153":-0.007651037117446721,"154":0.1667605993301335,"155":0.3398591171101272,"156":-0.05526280917514493,"157":-0.12833925268782292,"158":-0.12910342123704563,"159":0.12212284201991666,"160":-0.07417792489903383,"161":-0.15398716583310842,"162":0.043631260332264436,"163":0.09111480435763626,"164":-0.056285286579357885,"165":-0.19280860802682828,"166":-0.3506042518277923,"167":-0.013084003777023305,"168":-0.07618376789513985,"169":-0.17271976392262267,"170":-0.12368751800221005,"171":0.020859439576749583,"172":-0.1682647333302583,"173":-0.3911942702319867,"174":-0.22251314556282467,"175":-0.23530344939886086,"176":0.09741095986393232,"177":0.07917382335159637,"178":-0.0405974824133584,"179":0.08890166694231047,"180":-0.35378607809932955,"181":-0.32859068501817534,"182":0.0029902896046026597,"183":-0.2069322150852646,"184":0.11526096516512296,"185":0.12742877252557377,"186":0.036032772672240865,"187":0.17942142109883785,"188":-0.1873391008925328,"189":-0.1852717280854362,"190":-0.10498697226202389,"191":-0.015782811044773703,"192":-0.05159975134926885,"193":-0.02278087928099499,"194":0.2239156288349727,"195":0.12227027658805265,"196":0.03270915475876716,"197":-0.20550371905584253,"198":-0.11190161792305768,"199":0.21835690302623847}},{"sx":5,"sy":5,"depth":8,"w":{"0":0.16832264295486535,"1":0.010786808961927715,"2":-0.06840352769715095,"3":0.03469105515895443,"4":0.15781999829556798,"5":0.04981065014385352,"6":-0.00003230033877238284,"7":0.0970204277630889,"8":-0.10821481581952555,"9":0.09825631000291475,"10":-0.006184947511559701,"11":0.23337933425060614,"12":0.15888418200840904,"13":0.02618824593579302,"14":-0.017247107166057492,"15":0.11910388762887208,"16":-0.21015030010878147,"17":-0.13137939870473933,"18":-0.016981973695973318,"19":0.023268600956810142,"20":-0.1136662179461764,"21":-0.1013082840011824,"22":-0.17707398262206586,"23":-0.09527709412093205,"24":-0.08770778463118915,"25":-0.17302270331392772,"26":0.044119405004675,"27":-0.06812186626188722,"28":-0.13039454893072133,"29":-0.20520957124167127,"30":-0.11135763314167316,"31":-0.2643465667711803,"32":-0.17960464448045896,"33":-0.09277196509258609,"34":0.22610939028773389,"35":-0.05759327866748551,"36":-0.05319740661411785,"37":-0.24205745002099152,"38":-0.2548021650062115,"39":-0.05931001462995936,"40":0.06306095493259185,"41":-0.10586760720250074,"42":0.07318273601524292,"43":0.008651459089076406,"44":0.178269848411372,"45":0.03771711664621633,"46":0.008410949188990583,"47":0.019883788078987347,"48":-0.18405470423716339,"49":0.03102230821815502,"50":0.14029043338253208,"51":-0.08216073287204925,"52":-0.1375288178538818,"53":-0.07818412799361163,"54":-0.16942546985142698,"55":-0.11472407455114234,"56":-0.09971049827230864,"57":-0.0313526131354231,"58":0.1889349998640193,"59":-0.12313577082157565,"60":-0.1979933182916831,"61":-0.1459402525669635,"62":-0.2887625206607967,"63":-0.10462998964284381,"64":-0.1539343582699362,"65":0.0765260688243103,"66":0.1733799995072628,"67":-0.26732242439927056,"68":-0.053858892916341786,"69":-0.04804123256976933,"70":-0.4877833221933604,"71":0.09172846406979675,"72":-0.28823946732131506,"73":0.28425993560989765,"74":-0.05034622520767522,"75":-0.1872589486184109,"76":-0.026883302958359986,"77":0.11871821420074452,"78":-0.03755146213180262,"79":0.2408592617906176,"80":-0.13899136860421246,"81":-0.03795896785651909,"82":0.01754885070725283,"83":-0.031641296058887214,"84":-0.20774811668008264,"85":-0.22339613518649276,"86":-0.21801748365778248,"87":-0.021707493243731356,"88":-0.14408957462747585,"89":0.15368648423702125,"90":0.0578880503443579,"91":-0.10595992472396529,"92":-0.2706249144502552,"93":-0.2589310939363132,"94":-0.45742698501740875,"95":0.03387665824774811,"96":-0.15636517745801937,"97":0.1743503733493852,"98":-0.045105457884826686,"99":-0.06370459846249976,"100":0.04169179653815303,"101":-0.09828066828685889,"102":-0.4032116261865124,"103":0.015298599325557452,"104":-0.0012068740127372424,"105":0.21988060593449668,"106":-0.09206702050846675,"107":-0.02413042414504135,"108":0.23907749482736707,"109":-0.19732318583110672,"110":-0.09052729914280194,"111":0.06807477373429137,"112":0.14614250216321528,"113":0.024638396660542173,"114":-0.20724616737718923,"115":-0.14826543429148906,"116":0.3437491049489281,"117":-0.0709799304441955,"118":0.017047004972938744,"119":0.08851751531937181,"120":-0.03726393054667425,"121":0.18974329096923676,"122":-0.29198557975647216,"123":-0.13757857922266573,"124":-0.09817404919203605,"125":-0.20806035441857146,"126":-0.38216846722010483,"127":0.03578123111726629,"128":-0.029484697285352704,"129":0.1390071264851238,"130":-0.06172281029667602,"131":0.0785538114871371,"132":0.12803775480684232,"133":-0.26640308422768144,"134":-0.47258698742266886,"135":0.06355599647285402,"136":0.1236142180060739,"137":0.13921391856579024,"138":-0.04548211742879302,"139":0.10204595506935547,"140":0.3577288223695052,"141":-0.29664448878714444,"142":-0.32392918647611485,"143":-0.06224063001005401,"144":-0.030845105962891983,"145":0.06172630624322991,"146":0.25781424842427203,"147":0.0949090550168762,"148":0.3038213951591563,"149":-0.13791958516761038,"150":0.003178884524746008,"151":0.09633766910731259,"152":-0.08207869755648098,"153":-0.18297135085929359,"154":0.06301924000582407,"155":0.0742812561464258,"156":0.008937757685644449,"157":0.08443511095601819,"158":0.16440642410615283,"159":0.0167245618205646,"160":-0.03986297794053371,"161":0.11351435751760988,"162":0.08215127185095186,"163":0.04249747233927539,"164":0.10038536355223485,"165":-0.3042700285061631,"166":-0.2760553952315944,"167":-0.0677745752642909,"168":0.11641667583286001,"169":0.17984286134313024,"170":0.10406468069299087,"171":0.12391989867257058,"172":0.05411412952228942,"173":-0.20316726741915933,"174":0.04838764765009628,"175":0.12684874754136605,"176":-0.03664268274342944,"177":0.07744762314869989,"178":0.23078660331367956,"179":0.0844879146931938,"180":-0.05033586428490462,"181":0.02121492773294059,"182":0.09670918377375744,"183":0.17906883366566625,"184":-0.1545189994282029,"185":0.07170405337140014,"186":0.18815031952938224,"187":-0.06325413590631149,"188":0.035153253476061075,"189":0.2295072290264239,"190":0.14090257917087687,"191":0.14080071045650033,"192":-0.15932661101632334,"193":0.00012957874198971857,"194":0.08253230201802121,"195":-0.09900095015245038,"196":0.0425515636691681,"197":0.17692243234472996,"198":0.13953137114536238,"199":0.2125123426692926}},{"sx":5,"sy":5,"depth":8,"w":{"0":0.01693044236846412,"1":-0.12880887622601686,"2":-0.1655315592278807,"3":0.1545554465791419,"4":-0.008493563259038356,"5":-0.218296729831366,"6":-0.08174135459389738,"7":-0.13362743447357564,"8":0.00284007235322702,"9":0.11105806423120228,"10":0.004128680809160787,"11":-0.26131968392060306,"12":0.03857622667485346,"13":-0.16223784861289406,"14":-0.10021183462567054,"15":-0.05997559251867472,"16":-0.025015262512425838,"17":-0.16186102118946416,"18":0.11485982480009004,"19":-0.09544940153208682,"20":-0.2144544061724883,"21":-0.029044653789593342,"22":-0.22058946087711523,"23":-0.13856634693753658,"24":-0.14092481179364913,"25":-0.047008220955499294,"26":0.20497788933800015,"27":0.11082190359338556,"28":-0.2762852675670234,"29":0.0054551189117907455,"30":-0.08940429250223816,"31":-0.18194749045063588,"32":0.12530111018732526,"33":-0.13202464612873316,"34":0.21304388523478154,"35":0.08303796245116096,"36":-0.2876522763820944,"37":-0.217743279993945,"38":0.21120455495989857,"39":-0.36565576889932866,"40":0.02854287556671919,"41":0.09465976320440485,"42":0.030018070728420443,"43":0.18654547573333416,"44":0.005572003303688929,"45":-0.07360693258756851,"46":0.08173593859966234,"47":-0.023697231559194384,"48":-0.03491432473791236,"49":0.0175938076696484,"50":-0.025831732905427587,"51":-0.051141121931054905,"52":0.023649507614699413,"53":-0.3008930956281317,"54":-0.24785539269162035,"55":-0.10851797291982705,"56":-0.058937058876031394,"57":0.11130784308500168,"58":0.020319219950740194,"59":-0.011829566612153255,"60":-0.1287238788351444,"61":-0.10527180808789148,"62":-0.20289093947869816,"63":0.12237127372309571,"64":-0.14802099502223537,"65":0.10643219455773423,"66":0.17615165750335607,"67":0.146021530660476,"68":0.0918377892253567,"69":0.013935919644740296,"70":-0.021382576682523916,"71":0.060500446070916515,"72":0.0161618857945964,"73":-0.13210442568207076,"74":0.2523695573606223,"75":0.1009836814795964,"76":-0.3728164469460604,"77":-0.12817268962291642,"78":-0.09029311557501156,"79":-0.06282208633601633,"80":0.19158488976443278,"81":0.0423054035165798,"82":-0.08872739851631728,"83":0.08191044846270774,"84":0.07456722882102831,"85":0.13486489434900473,"86":0.13165952506637915,"87":0.17727069028635806,"88":-0.035704727771523524,"89":0.17303445368832113,"90":-0.04694008448882138,"91":0.0765125916429329,"92":-0.11094013085485238,"93":0.008482881333954844,"94":-0.23878528417806488,"95":0.13277240268366575,"96":0.04127688010070858,"97":0.12983681590206178,"98":-0.11867715441283667,"99":0.09323592974964083,"100":0.23952590433269308,"101":-0.019285707534538902,"102":-0.28983593759620374,"103":0.09597647532647623,"104":0.02784238525886274,"105":0.16658645568639455,"106":-0.005360652005103087,"107":0.05959594569727338,"108":0.036544241297599256,"109":0.15741451641244944,"110":0.03508453643248874,"111":0.24009198822062391,"112":0.12818145719842908,"113":0.26307747148028293,"114":0.09033674159045167,"115":-0.046362928812421766,"116":-0.20583972892110047,"117":-0.04572164156619749,"118":-0.04378614724369098,"119":0.1906736721807354,"120":0.04672911133641205,"121":-0.06149111893968576,"122":-0.14271496831915043,"123":-0.07250989314967637,"124":-0.15649237939904537,"125":0.02181567940051949,"126":-0.02636353671790539,"127":-0.04105200312529774,"128":-0.0038230498945819773,"129":0.07843505814732281,"130":-0.09861404734265382,"131":0.1127079882519061,"132":-0.1706760502369585,"133":0.028908387305381675,"134":-0.010289063766539692,"135":0.03499842116366306,"136":0.046069765500032424,"137":0.022740247752831753,"138":-0.362389510785097,"139":-0.1402177789539705,"140":-0.11057674914493582,"141":-0.023323244904612832,"142":-0.014856169914793535,"143":0.09860144227872362,"144":-0.0012670057135633166,"145":-0.03228227138218507,"146":-0.45918167496485274,"147":-0.18253679266107334,"148":-0.27025451620867175,"149":0.10407057578420191,"150":0.11232327900408808,"151":0.0795120374085867,"152":0.18350444371608418,"153":0.11542953334400152,"154":-0.30183028859866573,"155":-0.14798258511436949,"156":0.06184976627348614,"157":-0.03981490420879043,"158":-0.30658568004774445,"159":-0.06847630594215966,"160":0.01962742532157363,"161":0.1043467093910589,"162":-0.13559218375380744,"163":-0.0008555252679000501,"164":-0.20905919067987466,"165":-0.0354429650730284,"166":0.22868247901913563,"167":0.07056761288245321,"168":0.14744471024149844,"169":-0.028536991746506504,"170":-0.22476960103516783,"171":0.041418894881867924,"172":0.024739690271722348,"173":0.12400625315862689,"174":-0.01820179634597682,"175":0.041403878640668856,"176":-0.009517318758937262,"177":-0.10541398786425558,"178":-0.474990443884358,"179":-0.12059777049552617,"180":0.1984552494583757,"181":0.11003645033763816,"182":-0.002264529309784016,"183":-0.025000957789763665,"184":0.06553596587869681,"185":-0.033405944944689105,"186":-0.314327757210585,"187":0.01356318246933307,"188":0.23012931259749272,"189":-0.08133925394699457,"190":-0.06401377128856087,"191":-0.09397009342303116,"192":0.07807038814960103,"193":-0.13646327851620255,"194":-0.22737011243166097,"195":0.036292322654320655,"196":0.11470461233209597,"197":-0.024621744951154215,"198":-0.23103254025923572,"199":-0.07390064409185745}},{"sx":5,"sy":5,"depth":8,"w":{"0":0.21679545040441964,"1":-0.07361737425365117,"2":0.07061922666834985,"3":0.005886968432117723,"4":0.022089060293860065,"5":-0.014024245982919428,"6":-0.045246163873135,"7":0.06580738659060059,"8":0.05805271184964132,"9":0.16672380321779204,"10":0.219599411866087,"11":0.31212539020730573,"12":-0.04210120417821226,"13":-0.05319012370759467,"14":-0.2665516475668037,"15":0.12603219189758516,"16":-0.11100794462781749,"17":-0.02942710126349486,"18":0.02371549508030501,"19":0.0679633247802613,"20":0.04267992880863687,"21":-0.11421634759417555,"22":-0.13331625641012068,"23":0.22974961833215293,"24":-0.1389881250235441,"25":-0.023318597126127008,"26":-0.3379097861195381,"27":-0.11861989005275643,"28":-0.11085490173633708,"29":-0.15123525063776982,"30":-0.012832772417729628,"31":-0.15646089836611346,"32":0.00646055374537402,"33":-0.11775295947544835,"34":-0.26731226215535064,"35":-0.02046522662019088,"36":-0.04978963769629164,"37":-0.09544595240256315,"38":0.039222398376014975,"39":0.026904967385498066,"40":0.09123994305211644,"41":0.0702516956322309,"42":-0.1690769382430595,"43":0.13817306596268014,"44":-0.11897703664418756,"45":-0.50216880214102,"46":-0.3304337822985578,"47":-0.2307306997449998,"48":-0.15809881382343707,"49":0.29320909830439307,"50":-0.04123773488755899,"51":0.22453515583525332,"52":0.25496399857522467,"53":0.0293040893091599,"54":-0.49901939970581505,"55":0.024443384372271285,"56":-0.33272110494794005,"57":-0.016228829497481303,"58":-0.10398276871563744,"59":0.022536480498269205,"60":0.1872893988168682,"61":0.13362632490973853,"62":-0.08112227341564664,"63":0.12668912017934728,"64":-0.16009082291885895,"65":-0.21057700205807023,"66":-0.06617583302338734,"67":-0.14292163266870414,"68":-0.21411581451843734,"69":-0.18056542403761391,"70":-0.12701792827182734,"71":-0.2124352695478135,"72":0.024809385856991398,"73":-0.18692603198563076,"74":-0.21151696531749864,"75":-0.10441749734886162,"76":-0.11214047835200594,"77":-0.03286483062619947,"78":0.18543924913372234,"79":-0.12166808527454602,"80":-0.1567323852616972,"81":0.2708193171905221,"82":-0.14233373506998656,"83":0.1484123564591408,"84":0.18894630170261253,"85":0.019446523327034795,"86":-0.317717480369294,"87":-0.009225033691888868,"88":-0.14217405712586426,"89":0.10815371834140355,"90":-0.11816768741488862,"91":0.02493467986248151,"92":0.3861185614450677,"93":0.21205799999113653,"94":-0.03501030715470718,"95":0.051384623162989314,"96":-0.275497839472851,"97":-0.0720588249529549,"98":-0.1841241093495034,"99":0.0036112818758671575,"100":0.11477206591503661,"101":0.03934095602617687,"102":-0.03955512691787876,"103":-0.024985787372669918,"104":-0.09061239573528718,"105":-0.18946913341815544,"106":-0.09998492840091967,"107":-0.08997526431502695,"108":-0.18013785170634555,"109":-0.16394388777993488,"110":-0.28486649702592076,"111":-0.18549261961828117,"112":-0.142449375418049,"113":-0.17006566761676936,"114":0.1954774839413826,"115":-0.15302531496568736,"116":-0.03729549558505861,"117":-0.15466567959266528,"118":0.08117858073966835,"119":-0.2713077751977452,"120":-0.1593649321368375,"121":-0.058601932718477766,"122":-0.016530299833670402,"123":0.07538144846903638,"124":0.21115874674966648,"125":0.1804028762570665,"126":-0.14913122593859826,"127":0.0071383913354349585,"128":-0.2549126588469982,"129":-0.22694575688320195,"130":-0.0988981983863898,"131":-0.12394128320620958,"132":-0.07832688686220622,"133":-0.06340807253752806,"134":-0.12521112653933583,"135":-0.2073984664067477,"136":-0.030382504290813305,"137":-0.14557759628708095,"138":-0.04297854071208644,"139":-0.016988856323747643,"140":-0.28122152807971434,"141":-0.3511129505196748,"142":-0.14296950814875103,"143":-0.0357184440313254,"144":-0.011315907144680558,"145":-0.1331394398233281,"146":-0.0006219654656239467,"147":-0.11310251024650018,"148":-0.12119342485956953,"149":-0.0012976769274713016,"150":-0.038453047685252525,"151":0.0806602098023357,"152":0.024425332379843064,"153":0.012227553564071746,"154":0.08290401317369053,"155":-0.024850485408086986,"156":-0.15770414501638425,"157":0.26358838510915494,"158":0.06499216497787863,"159":0.3621060840597007,"160":0.03715590518535912,"161":-0.2851708041805592,"162":-0.07579134862621716,"163":-0.15537587732133953,"164":-0.16443400831334623,"165":-0.0031134943637270594,"166":0.2555862348061552,"167":-0.04252971848629417,"168":-0.10266281133948696,"169":-0.03607318544248921,"170":0.0649957999061778,"171":0.05487354770237641,"172":-0.33035367567653073,"173":-0.1548091357243069,"174":0.05611635070094763,"175":-0.1117880667369199,"176":0.07110840389908256,"177":-0.15959291434248585,"178":0.12954257802889907,"179":0.018898238569444045,"180":-0.05573160292354066,"181":-0.1704667047266008,"182":0.024347632671432872,"183":0.008156826531390597,"184":-0.03713998751610911,"185":-0.04532994480503848,"186":0.051554191416995264,"187":-0.033683094748872974,"188":0.0013845055616522593,"189":0.04501542112347782,"190":0.24521449458948696,"191":0.12208932353227792,"192":0.08105704199614382,"193":0.04958295832197776,"194":-0.006790845763225076,"195":-0.019902328097993027,"196":0.14345654384647852,"197":0.23820815328811476,"198":0.3837558397566797,"199":0.17459552626661254}},{"sx":5,"sy":5,"depth":8,"w":{"0":0.290310043117246,"1":0.1869951846527775,"2":0.17026680942701122,"3":0.005727753685076064,"4":-0.06063316927481924,"5":0.22287272509556516,"6":0.24628226034659378,"7":0.1496726236740923,"8":0.09834856717641269,"9":0.12757120785302964,"10":0.05200429958433731,"11":0.06304706069593424,"12":0.12250155338079599,"13":0.1887022060834442,"14":0.10471500241620055,"15":0.10889672334656131,"16":0.025580225990119124,"17":0.10518499309780248,"18":-0.00411485782335745,"19":0.0365247550488317,"20":0.18101944930501132,"21":0.1443055873082564,"22":-0.013178269681702322,"23":0.18699336632967617,"24":-0.015613987014651477,"25":-0.034439237106966315,"26":-0.06789508331451653,"27":-0.05342717276093667,"28":0.06142817943342365,"29":0.04211659451596963,"30":0.08145957278130896,"31":-0.09217828791451589,"32":0.023365282760456327,"33":0.05092108628484375,"34":-0.28541573293255607,"35":-0.00592985770444271,"36":0.25543061202069745,"37":-0.14218046904268034,"38":0.041385095233899334,"39":-0.06464595297874601,"40":-0.004710286487558861,"41":-0.12755880775124784,"42":-0.11831175278965024,"43":-0.2667587937512583,"44":0.14545088561672695,"45":0.1552959402614748,"46":0.21609310022767356,"47":-0.04499385123589649,"48":0.016446735365898947,"49":-0.23818275246911796,"50":0.016921953446250783,"51":-0.3232069875417259,"52":0.11985929333221082,"53":0.26944983612331636,"54":0.051470560567858765,"55":0.007473434142493384,"56":-0.14581794707625315,"57":-0.39153995972745287,"58":-0.30390198114093625,"59":-0.06603401679612175,"60":0.04690799074478041,"61":0.0899539096356445,"62":0.09251817535820746,"63":-0.024489763853902228,"64":-0.15866078404773962,"65":-0.2659130354205782,"66":-0.23771853977208998,"67":-0.11369157239310314,"68":0.0036490539331798097,"69":0.009603342916050778,"70":-0.17370110616208523,"71":-0.11055249628804675,"72":-0.09064102637725742,"73":-0.11676006080753923,"74":-0.248595876996907,"75":-0.06265291520973663,"76":0.014713306789585944,"77":-0.09564775947085281,"78":-0.176287399303358,"79":-0.09147697851663664,"80":-0.15075473216680518,"81":0.015070344807897923,"82":0.09044464705868556,"83":0.06789503841392912,"84":-0.15192965032027894,"85":-0.32960422319457616,"86":-0.04242474426110009,"87":-0.367073068075837,"88":-0.19287044251810975,"89":-0.2964087131322634,"90":-0.008523485005595433,"91":0.01672513373307677,"92":-0.15302657906155873,"93":-0.16696849348109352,"94":-0.06506891963247191,"95":-0.2966482942917602,"96":-0.231832791828946,"97":-0.21817243760262306,"98":-0.06328461770013417,"99":0.02791641280768755,"100":-0.02828216874196071,"101":-0.037169026708001436,"102":-0.0030428299083484394,"103":-0.3976020437564881,"104":-0.32554339005605276,"105":-0.36119275818211527,"106":0.08990487520456664,"107":0.08376319024131947,"108":-0.054099790672926446,"109":-0.04436923451362758,"110":-0.10750102404683412,"111":-0.44876545250889444,"112":-0.03057940400269246,"113":-0.18026679705893986,"114":0.0915333685707481,"115":-0.014710524134114934,"116":-0.1674262487274141,"117":-0.13462586560664838,"118":-0.01838643456841883,"119":-0.3137918050680781,"120":-0.07781372982469005,"121":-0.04321830829061928,"122":0.1843588977966929,"123":0.03550614395019379,"124":-0.1115757122174556,"125":-0.0038661487482764744,"126":-0.14573329484746342,"127":0.07847800659915695,"128":-0.029463339229872057,"129":-0.09852238683901576,"130":0.1367969070631957,"131":0.02518632149046804,"132":-0.22505210697931113,"133":-0.10853524097247336,"134":-0.05216881769802907,"135":-0.15290668272484512,"136":-0.035215935666424905,"137":-0.23238958747115301,"138":0.19030416012754578,"139":0.08297013895291602,"140":-0.304909428034037,"141":-0.2241008086927099,"142":-0.034143206925184244,"143":-0.08601581347959698,"144":-0.19854784149751506,"145":-0.27520851929361256,"146":0.29269325735573143,"147":0.0559896258152717,"148":-0.13374701803437708,"149":-0.1105283698790772,"150":-0.15765515371591485,"151":-0.23302542544319135,"152":-0.1580207452769524,"153":-0.22028665993395607,"154":0.10596434159767941,"155":-0.133598190040961,"156":-0.28552908459908544,"157":-0.14875734982535743,"158":-0.1592004281452948,"159":0.07167627240458826,"160":-0.05204991322958178,"161":-0.18888789847321413,"162":0.12206241146178975,"163":0.10932130825021763,"164":-0.024822037653544515,"165":0.12681711035867876,"166":-0.011038811902032358,"167":0.08632738034411348,"168":0.04415228158837005,"169":-0.08429721891249785,"170":0.14568433473317632,"171":0.045505937507827124,"172":-0.030454220863805632,"173":-0.03484577946324265,"174":0.044253983365533725,"175":0.04112220241957046,"176":0.07136677784313429,"177":0.00022333629315975665,"178":0.15249444880727236,"179":-0.0980464064905066,"180":-0.2689765965357368,"181":0.012827220696860224,"182":0.09764230226389616,"183":0.10039474489112994,"184":0.08731934020847149,"185":0.17299971943570946,"186":0.06356126054667674,"187":-0.158960892450923,"188":-0.26169400152785843,"189":0.16367222760317174,"190":0.16008942443021992,"191":0.14940533726135374,"192":0.17444161674326217,"193":0.20090632092259544,"194":-0.09663543614135353,"195":-0.19450248569237152,"196":-0.10254893894586481,"197":0.17676425260125395,"198":0.21525793576941307,"199":0.22251828319948624}},{"sx":5,"sy":5,"depth":8,"w":{"0":-0.3048125343282211,"1":-0.02921586904323386,"2":0.1489161474889143,"3":-0.09903694858988915,"4":0.030441574442944125,"5":0.13117648693910147,"6":-0.1666597460297186,"7":-0.07867869600218637,"8":-0.11402462860616465,"9":-0.07712714625909381,"10":-0.002009864383493734,"11":-0.0774891033761781,"12":-0.14638988641593115,"13":0.019818081619378928,"14":0.03685597272878117,"15":-0.2270148584527974,"16":-0.10949922437189903,"17":-0.2103762316136192,"18":-0.11798546625378803,"19":-0.17340420545306126,"20":-0.03316278098822357,"21":-0.02884722628072829,"22":-0.06732461735931464,"23":-0.06422285666811674,"24":-0.2522128578133104,"25":-0.19385590338342967,"26":-0.16619789479015235,"27":-0.1952085693948711,"28":-0.13332952298609854,"29":-0.0071218254391838065,"30":-0.027229888458774408,"31":-0.1358702302038406,"32":0.0659278315579555,"33":-0.20646658585937055,"34":-0.21348456088796872,"35":-0.2062642048782065,"36":-0.018106701224529086,"37":-0.048077198563388664,"38":-0.03166221809326598,"39":-0.0762562498302847,"40":-0.043422558843748224,"41":-0.09324532063057969,"42":0.06125686704381579,"43":-0.1746793624381916,"44":0.15310154808162524,"45":0.1285435110713318,"46":-0.0625553652334869,"47":0.12862811179755654,"48":-0.3393432921948825,"49":-0.026762909406956,"50":0.12290295005938433,"51":-0.05180263045372102,"52":0.0979456448870897,"53":-0.1796877354448293,"54":-0.3182969152722603,"55":-0.07556719255919983,"56":-0.35162593099012945,"57":-0.0025847094710951127,"58":0.0639015719063517,"59":-0.08478414129032338,"60":-0.17440444020207152,"61":-0.20860530265971416,"62":-0.16528050608069372,"63":-0.06398901484238022,"64":-0.2503751707376026,"65":-0.14293690335823353,"66":-0.033337310908840505,"67":0.06289049453582113,"68":-0.35980980724186645,"69":-0.2385871358118452,"70":-0.09084342940904785,"71":-0.39560933402287807,"72":-0.2619317490296497,"73":-0.140144578853907,"74":-0.1456236493452244,"75":0.01607222862003091,"76":-0.20311632929413226,"77":-0.11036048981771027,"78":0.11680767700203902,"79":-0.18318557153865467,"80":-0.12488028184134309,"81":0.06923528508144605,"82":0.03699206640560786,"83":0.03810112776646896,"84":0.09900135659125386,"85":0.010234979018817833,"86":-0.061444969295568086,"87":-0.08840685358790029,"88":-0.1320616411551927,"89":0.15958083701763398,"90":0.11756602589770525,"91":0.1470766065156324,"92":0.08172668106237456,"93":0.039515570926827254,"94":0.12903991538517376,"95":0.09379325042673094,"96":-0.012191366748749441,"97":0.12407181354807746,"98":0.20313086142724282,"99":0.07001267858039806,"100":0.02123419635422308,"101":0.10070163697319542,"102":-0.010732666160089773,"103":0.15267775054841223,"104":-0.041247995420246035,"105":-0.09624863182457932,"106":0.31973448307382285,"107":0.19303471622847604,"108":0.02600546952785137,"109":-0.005712220657487249,"110":-0.03350019256602338,"111":-0.22004460559371267,"112":-0.36701948478040375,"113":-0.11712186613806018,"114":0.30913110518014214,"115":0.2089559176989126,"116":-0.08384838002569174,"117":-0.12169997299033591,"118":0.049824549531264486,"119":-0.28421920680223056,"120":-0.0215903685020927,"121":0.22375485146557242,"122":-0.038830573956056116,"123":0.03077541482339205,"124":0.19125196696564753,"125":0.1552314753790388,"126":-0.12002401834656001,"127":0.14870268080273086,"128":0.013275614698187624,"129":0.17667369509237385,"130":-0.17082011067933991,"131":0.016947030346249312,"132":0.05260899999332699,"133":0.07160805692024343,"134":-0.017070559752438062,"135":0.07275262124147472,"136":0.03404360856839033,"137":0.20838002707115885,"138":-0.1031293889082982,"139":-0.047098274635375664,"140":0.048922396179864575,"141":0.21795160055793694,"142":0.14929190969527428,"143":0.2207170220222272,"144":-0.039507807215794284,"145":-0.050409368736702806,"146":0.06034088498810708,"147":-0.12573349467235265,"148":-0.00417518052059287,"149":0.20220047832622656,"150":-0.014479705277855056,"151":0.13956278849617454,"152":-0.10438491449866384,"153":-0.11424012386855209,"154":0.24246809949986778,"155":0.07684955506120607,"156":-0.1311782295946537,"157":-0.060022959226511595,"158":-0.1330928342141613,"159":0.04464365114541065,"160":0.1412188930802483,"161":-0.08952504469009766,"162":-0.287757377994458,"163":0.05644975158935219,"164":0.19858023768556832,"165":-0.03252466344452105,"166":0.08883175364888074,"167":-0.017628059498906636,"168":0.038061589425418596,"169":-0.171462995620427,"170":-0.07762979493699643,"171":-0.00184766571253999,"172":0.10422206092063731,"173":0.059680333547159084,"174":-0.1259820083959458,"175":-0.053837268762873314,"176":-0.033432216858617476,"177":-0.09790451855556871,"178":-0.29760588609432814,"179":-0.2468579952852677,"180":0.012414636630699647,"181":-0.013692421341873401,"182":0.026307919821864294,"183":-0.28092614727914134,"184":-0.00653062845228731,"185":-0.0035761405309705065,"186":-0.2861097951220494,"187":-0.3850346499751874,"188":-0.10837876088176743,"189":-0.08959636751919892,"190":0.002866364866264214,"191":-0.019831210538939915,"192":-0.014245896565063651,"193":-0.12518363689944878,"194":-0.09224460763169964,"195":-0.1016943183283169,"196":-0.12926157014534836,"197":0.0670761341009142,"198":-0.14039214575778072,"199":0.026135667446845}},{"sx":5,"sy":5,"depth":8,"w":{"0":-0.0014572404042693969,"1":0.02770265876431846,"2":-0.11953494882820397,"3":0.11659058475130298,"4":-0.15322939621189088,"5":-0.1753924279467381,"6":-0.039716023959461624,"7":-0.07359984779892494,"8":-0.05129828539528496,"9":0.15432556441207881,"10":-0.03911163084152647,"11":0.1299606251048558,"12":0.13285865558720816,"13":0.19917591488419722,"14":0.1466162543813208,"15":0.1204783163322866,"16":0.20734769455117,"17":0.10029676190989355,"18":-0.002174406609679148,"19":0.08438533621109678,"20":0.05913746026751182,"21":0.04601505208707442,"22":0.2544426937343286,"23":0.07953648365192427,"24":0.006332543810370237,"25":0.14348341313251906,"26":-0.2205690580126108,"27":-0.14334172460566308,"28":-0.24973156155639345,"29":-0.08002509497615513,"30":0.013057418493468852,"31":-0.019793867834837456,"32":0.09816970430593712,"33":0.01272705220391707,"34":-0.14862096438007022,"35":0.05588410694156994,"36":-0.05780633517005033,"37":-0.17799551050643506,"38":-0.28279687345114957,"39":0.1522136465040588,"40":-0.15561202739564034,"41":0.1257932968855985,"42":-0.102504974945011,"43":0.016234654055131605,"44":0.09342407147384937,"45":0.031950073904470605,"46":-0.09612874204821234,"47":-0.03802832612464093,"48":0.08542735048241751,"49":-0.04090343754240549,"50":-0.14027553507030333,"51":0.013224522619328289,"52":0.12308420331601755,"53":0.08383527958458822,"54":0.029577493184548193,"55":-0.01116594730031123,"56":0.10382225238694924,"57":0.08241155671296,"58":-0.20746919586349313,"59":0.056730974303910345,"60":0.01917676894141004,"61":0.028582842332783527,"62":0.23482965419274301,"63":-0.0850340939808846,"64":0.13634497203797544,"65":0.01191116949851248,"66":-0.0873234371215197,"67":-0.2580427330611296,"68":-0.16857221602550673,"69":-0.11240461023243169,"70":-0.10237621386390651,"71":-0.17226087127374606,"72":0.2221728513319319,"73":0.28754214062346645,"74":0.012684260974239466,"75":0.16673570126552342,"76":-0.10028331317972389,"77":-0.3788497323143025,"78":-0.27300992294142906,"79":0.16428045753430104,"80":-0.16567564005848695,"81":-0.07950375274097653,"82":-0.34357155473723083,"83":-0.1476951075574662,"84":0.0374979354776155,"85":0.0803508714197582,"86":-0.1757818285669119,"87":0.015928758878035194,"88":0.06828396446051291,"89":-0.11435559491671289,"90":-0.12514426477736737,"91":-0.10037497025776318,"92":0.17820809869185797,"93":0.10604814873741202,"94":-0.18056341896865283,"95":-0.06682312302299906,"96":0.09176683016087461,"97":0.08707755728298386,"98":0.022602365354271636,"99":-0.08588746756130111,"100":0.047369048782145984,"101":-0.06468799950432132,"102":-0.08150025553014643,"103":-0.1095390115420371,"104":0.11231498898218785,"105":0.11999047899085385,"106":-0.0797975802224844,"107":-0.21939805470349696,"108":-0.26836901814663006,"109":-0.22476100127660248,"110":0.024531441815336483,"111":0.03772155815342097,"112":0.24160668797642154,"113":0.2549823800680719,"114":0.01807176583357168,"115":0.024654492612604415,"116":0.05558454306302964,"117":-0.369977258834519,"118":-0.3601189296469487,"119":0.2506301989539433,"120":0.07523700109984242,"121":-0.14148053285067183,"122":-0.0008953446618581898,"123":-0.0868524288449981,"124":-0.17426138255396584,"125":0.08667646966188565,"126":-0.06567905298658698,"127":-0.05313949803868805,"128":-0.0006813773182398066,"129":-0.057645727179717214,"130":0.06757138400759637,"131":-0.29658632439486377,"132":0.02841265273151451,"133":-0.009084174840621422,"134":-0.2995664940973351,"135":-0.010707553141568288,"136":-0.10297486769755404,"137":0.08767506984403424,"138":-0.02528191354685369,"139":-0.10535480705751711,"140":-0.12142650515849594,"141":-0.21043260334620129,"142":-0.2115769631295577,"143":-0.14714827085170093,"144":0.02214301723927122,"145":0.2819170341175895,"146":-0.17607983660584617,"147":-0.16143282799477568,"148":-0.19094164056208135,"149":-0.22567385718330257,"150":0.03919690080048371,"151":0.04922327035342214,"152":0.2736887405277479,"153":0.2738455739725499,"154":-0.05787644876444362,"155":0.010206812165901568,"156":-0.08670062259457309,"157":-0.2779767896039419,"158":-0.14302025875534513,"159":0.13626237218441475,"160":-0.13962400286904278,"161":-0.14557097442154673,"162":0.055010754928985856,"163":0.031129676296854546,"164":-0.017852763351494286,"165":-0.17067714530630015,"166":-0.14814113994880732,"167":0.025365380588735765,"168":-0.10470779030126767,"169":0.14371680251071878,"170":0.09705725153818237,"171":-0.21722127207477335,"172":-0.16013583648919194,"173":-0.12909485348156305,"174":-0.1595210744829231,"175":0.07966767012296036,"176":0.08282016321882364,"177":0.08372149574621901,"178":0.033647028436733055,"179":-0.1942235530560163,"180":-0.14136469325208448,"181":0.05622521889792714,"182":-0.08383875123774068,"183":0.009734958580525182,"184":0.07906592273936205,"185":0.21992512962528413,"186":-0.05868394565280434,"187":-0.12493423783724053,"188":-0.03109509448171864,"189":-0.2197101287933788,"190":-0.23608525380790224,"191":0.12076847080047073,"192":0.07228328268826688,"193":0.1458119405078795,"194":0.13964339111277735,"195":0.012993656174634268,"196":0.008755411225871238,"197":0.09989783051536825,"198":0.017611442781964547,"199":0.1858837173329441}},{"sx":5,"sy":5,"depth":8,"w":{"0":-0.1605969224652625,"1":-0.0420313327362069,"2":-0.07977015144331712,"3":0.010839582737817861,"4":0.05681840464003098,"5":-0.07545883826528349,"6":-0.21892175000603062,"7":0.011048509234075828,"8":-0.13438605008040372,"9":-0.030254938219256924,"10":-0.032939859650883356,"11":-0.18879442101698454,"12":-0.28432391028836246,"13":-0.1346874113452579,"14":-0.101421286201014,"15":-0.2306509515335591,"16":-0.3669636453056545,"17":-0.1269183749544889,"18":0.11099421000046539,"19":0.1432172048769548,"20":-0.1687024793522367,"21":-0.07659204849627808,"22":-0.2995067251989169,"23":-0.1954063584721263,"24":-0.3206412894526054,"25":-0.18231446198274986,"26":0.24653420201872575,"27":-0.017036160717221447,"28":-0.10574231486365919,"29":-0.3191813635770541,"30":-0.29394045650354866,"31":-0.1804185297341098,"32":-0.4361113415908717,"33":-0.10230364644594404,"34":0.22560846897491382,"35":-0.07738919748505553,"36":-0.33088022381044646,"37":-0.26416622773949505,"38":-0.5397331120203462,"39":-0.04960833299971641,"40":-0.24255537663409568,"41":-0.11596256786180272,"42":-0.05017340334038491,"43":-0.039332519492289914,"44":-0.06710883617290042,"45":-0.20763056427136647,"46":-0.1907477389113446,"47":0.013134665490433923,"48":-0.32497545790344856,"49":0.018891784014407005,"50":-0.04011080599693693,"51":0.007392351746159223,"52":-0.016224212886016814,"53":-0.17358023505083606,"54":-0.29281148574577703,"55":-0.14999048520891398,"56":-0.12491207589866513,"57":0.0057102142057988605,"58":-0.08755169405573805,"59":0.02375599174138037,"60":0.13257611695676946,"61":-0.10099040834490679,"62":-0.13507840942138707,"63":0.07167294700567416,"64":0.0809368787984707,"65":0.056572579224358675,"66":-0.07737300334145963,"67":-0.13198986538732296,"68":-0.1322457565243553,"69":-0.14931568569961148,"70":-0.27058946834583303,"71":-0.10036484453268767,"72":-0.1712599602415467,"73":0.08547779821461454,"74":-0.1822783816152469,"75":-0.046134609608601544,"76":-0.10840786242057154,"77":-0.20134898582019523,"78":-0.2638225955141866,"79":0.04596167016043022,"80":-0.15352255623598757,"81":0.22484404441320005,"82":0.09421395210321709,"83":0.2267512730847067,"84":0.09525262660882029,"85":-0.10648112760657372,"86":-0.22109104076273067,"87":-0.03143706954491735,"88":-0.054269021720577786,"89":-0.06265734785872588,"90":-0.052073171860326284,"91":-0.00990714137314246,"92":0.14516613091785557,"93":-0.2934347549196523,"94":0.002113440941063981,"95":-0.08535659073156354,"96":0.038459985104869754,"97":-0.007533118964129507,"98":0.04109917916599927,"99":-0.024652004156324656,"100":0.014893370213735772,"101":-0.11456978768408636,"102":0.1516722621327925,"103":0.128742315609548,"104":0.16912908136393012,"105":0.022413352775235127,"106":-0.14454712624683896,"107":0.05788803407795502,"108":0.06207608975035367,"109":-0.05666337059624595,"110":0.010579621501699455,"111":0.057230619176626356,"112":-0.06617922732350097,"113":0.11212205485371567,"114":0.25015433448254226,"115":0.05315943877141746,"116":0.04311007500590201,"117":-0.300701762314991,"118":-0.06119889795699622,"119":-0.027268710466544874,"120":-0.14837330771260093,"121":0.055851885729186215,"122":0.15295713901384536,"123":-0.023707972856118985,"124":0.11211106493439246,"125":0.15021421739098434,"126":0.010435060818268883,"127":0.09292559155782003,"128":-0.057579178158306224,"129":-0.026983682518863635,"130":0.05877678459149748,"131":0.03243710132409448,"132":-0.14252753921084785,"133":0.05046069329121439,"134":-0.19492398914889653,"135":0.041164904438429746,"136":0.005578062120697666,"137":0.08131918979351042,"138":0.0819091489065729,"139":0.10506923078645371,"140":-0.17319844801445247,"141":-0.017871977273865285,"142":0.013833491686507132,"143":0.03737913898815132,"144":0.14372642102406435,"145":0.288243134771002,"146":-0.07665134636104094,"147":-0.13265179783962677,"148":-0.08524010858762053,"149":0.06998535572331606,"150":0.21324447857689077,"151":0.13721248026044439,"152":0.10237689022628389,"153":-0.008310306664200314,"154":0.12024303140603236,"155":-0.12381253167341325,"156":-0.1538597895048569,"157":-0.08168701247050882,"158":0.0560249823801845,"159":0.10506374979873588,"160":0.07435258541400575,"161":-0.05633634313714471,"162":-0.2793698450618271,"163":-0.057943256215041726,"164":0.2093204052273306,"165":0.4180079749766831,"166":0.15585572708607864,"167":0.22164519632837804,"168":0.010061554850119416,"169":-0.02508401651747848,"170":-0.14835490953111682,"171":-0.06238526012841781,"172":0.009227810057559682,"173":0.1424215102741851,"174":-0.014026777898363806,"175":0.18598464158653738,"176":-0.00728096054774136,"177":-0.012953657168013515,"178":-0.23038294265717388,"179":-0.21552948973831362,"180":0.1081840867881353,"181":0.058391889228789476,"182":-0.019997578345760797,"183":0.14372859055596424,"184":-0.01137595879893636,"185":-0.03912504740975861,"186":-0.2507739727676336,"187":-0.15457548015003297,"188":0.12570855296354133,"189":0.15379075061146172,"190":0.15181645655691944,"191":-0.05809009097126585,"192":0.23768934015751286,"193":0.00018549509054622952,"194":-0.21610322533774745,"195":-0.34493481960247185,"196":-0.2208195686091452,"197":-0.03787453286024446,"198":0.25760676860437726,"199":0.1958927851870038}},{"sx":5,"sy":5,"depth":8,"w":{"0":-0.25963759030635125,"1":0.10894940588261184,"2":0.05638039024798348,"3":0.0059052338562136444,"4":-0.054113579795259784,"5":-0.09596469298883273,"6":-0.11886206190775153,"7":0.13043988703919224,"8":0.03476657421059381,"9":0.01904376723690173,"10":-0.16306790341896193,"11":-0.1280753592359468,"12":0.08719385779585598,"13":0.07283113421865975,"14":0.09236503964423164,"15":-0.0019373199128065663,"16":0.004169040124226354,"17":-0.12538802053992132,"18":-0.06563539044950896,"19":-0.021076252513441657,"20":0.28240050742610273,"21":0.03005852694245861,"22":-0.11088242288309302,"23":-0.21472965727416246,"24":-0.07409467464291834,"25":-0.07915862781866313,"26":-0.06477998189266258,"27":-0.1447214262719767,"28":0.31444194809063797,"29":-0.07293628475443019,"30":-0.22743511553781748,"31":-0.13510944226677182,"32":-0.010880115677126448,"33":0.16869406161063072,"34":0.034184266129552256,"35":-0.17700456524844724,"36":-0.23469071841191635,"37":-0.06989917150037823,"38":-0.2012888020775068,"39":0.02361321474593126,"40":-0.25263528726706647,"41":0.16640766497013518,"42":0.22653336628652512,"43":0.12970142958876088,"44":0.0025760846324325995,"45":-0.25656129317681314,"46":-0.3591313771909339,"47":-0.0780696328951247,"48":-0.13062255166850936,"49":-0.028813639504017826,"50":0.24972046565679892,"51":0.0609677824259861,"52":-0.11124121656346561,"53":-0.23497069978895102,"54":-0.23207080767851174,"55":-0.06181882075632607,"56":0.050975041820841026,"57":-0.1688393764959495,"58":-0.11255250441562731,"59":-0.0938489653078911,"60":-0.24613439378487154,"61":-0.3058133057098307,"62":-0.13561455684382845,"63":0.02711081836576021,"64":-0.009802697393454376,"65":0.044970168823432084,"66":-0.16985975839762005,"67":0.11642356831643422,"68":-0.3026385663787546,"69":-0.039161341596891115,"70":0.008293862017218961,"71":0.2101627661740257,"72":0.18163726584023301,"73":0.23161956582574683,"74":-0.32584394431977803,"75":0.10197161623807878,"76":-0.13364384180776534,"77":0.15872276144660138,"78":0.1140615108593796,"79":0.17148049117056827,"80":0.07341569648830962,"81":0.15736477015808598,"82":0.08787002261504996,"83":0.1009056688401181,"84":-0.1834684816133904,"85":-0.20400823596777187,"86":-0.02324020904245631,"87":0.02118944723044305,"88":-0.0813177252641049,"89":-0.152820624014236,"90":0.299573891187197,"91":0.3589670834420276,"92":0.01711046802896373,"93":-0.1291085797766209,"94":-0.03347887658517873,"95":0.21609890991423694,"96":0.18132078396535714,"97":-0.035080168549045845,"98":-0.09800378555367871,"99":-0.02052978657145914,"100":-0.16632181070223642,"101":0.14855768517411985,"102":0.14725188925403027,"103":0.22317441118439077,"104":0.11638934484399431,"105":0.09899324505023402,"106":-0.23971473925395748,"107":-0.12313489199692264,"108":-0.04067104728649093,"109":0.09476468381382744,"110":0.1298094967137328,"111":0.2603583347428405,"112":-0.01107741869658581,"113":0.07814129481219667,"114":-0.17738075069348597,"115":0.2046850897250494,"116":0.28158161119028735,"117":0.023993770308324204,"118":-0.22213289693405533,"119":-0.17549245283829176,"120":0.06956970629822372,"121":-0.042441114017180176,"122":-0.06427422036545953,"123":-0.09175989849015727,"124":-0.14745748008014647,"125":-0.14045139753356867,"126":-0.12065942168585872,"127":-0.030223965430774078,"128":-0.2320293871326955,"129":-0.21109466190072693,"130":0.3115666399342438,"131":0.0821636835467469,"132":-0.16074844016553386,"133":-0.17067187380490711,"134":-0.045214503638550715,"135":-0.023923956970486705,"136":0.045371518342913635,"137":-0.08875254784488235,"138":0.24982328864826142,"139":-0.03676809597264642,"140":-0.2589582480486761,"141":-0.06073618665625034,"142":0.11210083183063654,"143":0.02921240673146548,"144":-0.057815320783251904,"145":-0.2893383938699475,"146":-0.03589783037327802,"147":-0.33965969463889,"148":0.03920446596565245,"149":-0.02779190014744984,"150":0.08485758576185784,"151":-0.15511906926066527,"152":-0.19873882247152844,"153":-0.32455260309329953,"154":-0.2169731917604935,"155":0.15883653409070636,"156":0.2779581731034584,"157":-0.02702401772010731,"158":-0.22168032798147444,"159":-0.11043196342272853,"160":0.09767002682727402,"161":-0.06177651893438746,"162":-0.19380791945380094,"163":-0.13896753982958587,"164":-0.10688435516298567,"165":0.00427988213517352,"166":0.1384596036040044,"167":0.017842646155152582,"168":0.06928069569364403,"169":-0.0556762826531154,"170":0.06458525924592655,"171":-0.1501069942715385,"172":-0.14808960261992984,"173":-0.030001663049039506,"174":0.05155642592100451,"175":-0.043482862036417234,"176":-0.1980952613682916,"177":-0.3090826523757497,"178":0.16508389050260738,"179":0.08599056390841132,"180":-0.12909221780690253,"181":-0.18416389528634605,"182":-0.08825104607972135,"183":-0.20105095339389525,"184":-0.11154341083715467,"185":-0.29423354099621096,"186":0.08769258401034717,"187":-0.15684110217638808,"188":0.04474271320711397,"189":-0.08877589809169843,"190":-0.11303183310187208,"191":-0.2516879093158684,"192":-0.1659955838620779,"193":-0.1508079197691506,"194":-0.09601504305371207,"195":-0.06942824293169544,"196":-0.04612188808321926,"197":-0.04587543035353099,"198":-0.018753002043793945,"199":-0.26289059713707774}},{"sx":5,"sy":5,"depth":8,"w":{"0":-0.14804230734118448,"1":-0.030487424345353648,"2":-0.07678005155849951,"3":-0.06195525671903703,"4":-0.35146400825621554,"5":-0.17275127352194575,"6":-0.2772829391281353,"7":-0.007753853810345597,"8":0.1869491110727595,"9":0.25209553297046006,"10":-0.2592274285200326,"11":-0.240133152723953,"12":-0.13460486688844192,"13":-0.2982699190611503,"14":-0.19256067336598254,"15":0.03911953279534321,"16":0.1400760676895991,"17":0.3037212300788833,"18":-0.1669046663744199,"19":0.1740278834740968,"20":0.2594040495608346,"21":-0.2003524368549373,"22":-0.31391744797643495,"23":-0.013370592964793529,"24":0.03632900294657693,"25":0.2519488598075095,"26":-0.14316154164407752,"27":0.0723091089758369,"28":0.13635536423377315,"29":-0.10866706395645512,"30":-0.2710239358490353,"31":0.2611459781355831,"32":-0.16419928810156928,"33":0.16251305952667164,"34":-0.1423881297034907,"35":-0.12515796319967423,"36":0.016459837253427045,"37":-0.16831661015768387,"38":-0.16867052010735292,"39":0.13460158987896748,"40":0.08259746695279832,"41":-0.024217932333648523,"42":0.19044016193416616,"43":0.0889205539675707,"44":-0.0441555313287047,"45":0.04644271500723083,"46":-0.04840756737245365,"47":-0.01496718093963044,"48":-0.0029942273564347237,"49":0.21629966885269467,"50":-0.08232298470789648,"51":-0.03786984083744015,"52":0.047147072063625534,"53":-0.1241406259064635,"54":-0.053852997433042026,"55":-0.05557969257115938,"56":0.0051397210004661,"57":0.05273831956914225,"58":-0.01724540979874447,"59":-0.06115864219886709,"60":0.01763474873042308,"61":-0.0195243590963752,"62":0.06351110866302187,"63":0.061459052812105106,"64":0.09395681723309257,"65":0.15514745269406535,"66":0.06834884291096303,"67":0.0996650477039386,"68":0.05572281558527011,"69":-0.11446604046314725,"70":-0.01608023649985804,"71":0.09768118248401153,"72":0.012097682022634318,"73":0.056529671387718014,"74":0.019560193972426074,"75":-0.029996041770932746,"76":0.22650815931772958,"77":0.022078004836929493,"78":0.07539008051302698,"79":-0.03216921460432722,"80":-0.0008650997601311566,"81":0.03261470663699181,"82":0.06868965630804368,"83":-0.09235915508541395,"84":0.1885503170343843,"85":0.2677161312780602,"86":-0.05750741166581875,"87":0.17626053766430236,"88":-0.17323094028135336,"89":0.016375691482555844,"90":-0.017440448368158275,"91":-0.2438957805624637,"92":-0.08487034615735126,"93":0.21781839906039632,"94":-0.10365235016403604,"95":0.054850834781281325,"96":0.017353512960153125,"97":-0.07428303963456212,"98":-0.06564726857077122,"99":-0.13031222487266064,"100":-0.033527781621362975,"101":0.16169118920599931,"102":0.052300031058806914,"103":0.18424780018227574,"104":0.11217165172732546,"105":-0.07743747117846833,"106":-0.0945251374284122,"107":-0.15925200459472436,"108":0.19673589282936693,"109":0.2101837244349893,"110":0.13804333641708386,"111":0.23006643061171222,"112":0.29072837733827006,"113":0.052579199784836245,"114":-0.14217697230253426,"115":-0.06853632592298127,"116":0.09287810506413821,"117":0.19434538602319607,"118":-0.026103053623954355,"119":0.4046429555668784,"120":-0.09663584153222078,"121":-0.31761203479988426,"122":0.033869016216579534,"123":-0.15634599078243555,"124":-0.006170131924276375,"125":-0.03796590713274099,"126":0.03633372417790819,"127":-0.10074401179815984,"128":-0.06828837290290976,"129":-0.19365283189099436,"130":0.054172796086915206,"131":-0.1574825783321439,"132":-0.19811917592152953,"133":-0.10230314323602407,"134":0.022345181521400182,"135":-0.3328892646687888,"136":-0.11622152776371454,"137":-0.2300935320723963,"138":0.08984001182041505,"139":-0.25294080850047185,"140":-0.11758128997949836,"141":0.008042776181764246,"142":0.16309127905205936,"143":-0.0205883068645233,"144":0.045859546958390236,"145":-0.1306466026348235,"146":0.010970237278025829,"147":-0.056659249545483584,"148":-0.1396343957997022,"149":0.029708186005022317,"150":0.13375384678864843,"151":-0.1439049303470351,"152":0.06560896125922874,"153":-0.041730014200586196,"154":-0.1103829153777137,"155":0.032201835603619715,"156":-0.03103920457866281,"157":-0.009823982801689357,"158":0.09924906739364793,"159":-0.0935851239010721,"160":-0.09969423609855575,"161":-0.20685258878478202,"162":-0.08667804387395207,"163":0.020353721900427463,"164":0.005030320461788819,"165":-0.10348516457382347,"166":-0.08419869563586183,"167":-0.1229967702881274,"168":-0.1282187836494006,"169":-0.13315680303366656,"170":0.1300083802467531,"171":-0.06469688060027205,"172":-0.054694726350054956,"173":0.03146567667582231,"174":-0.010649137089885519,"175":-0.10403885963381176,"176":-0.09061658709885556,"177":-0.0341026123921326,"178":0.07535922824589339,"179":-0.09666181335682679,"180":-0.1414384539561274,"181":0.09770097336191516,"182":-0.14000296937331752,"183":0.03395159649319983,"184":-0.17854920807930136,"185":0.07122680160136133,"186":0.06962143387406888,"187":0.08477963892638947,"188":-0.1504724008182463,"189":-0.11140076840644145,"190":-0.28431279958162364,"191":-0.018873405213677627,"192":-0.14448126751100238,"193":0.05813178749383029,"194":-0.0605517811787546,"195":0.28325113141202046,"196":0.009667606358914954,"197":-0.09268918993698115,"198":-0.24263103768502614,"199":-0.16041446067265175}},{"sx":5,"sy":5,"depth":8,"w":{"0":0.15723783988777795,"1":-0.13702127709571238,"2":-0.1155123729298746,"3":-0.1925635886469905,"4":-0.07864829661738895,"5":-0.12816947633245573,"6":0.09531920084457261,"7":-0.16712589457071858,"8":0.08302514742701482,"9":-0.00802011082379386,"10":-0.000041967092922440535,"11":-0.3331171472713508,"12":-0.18187153492215327,"13":-0.11533626889665793,"14":0.06711492415340187,"15":-0.04526579441170435,"16":-0.03983880385482991,"17":-0.027368167001708896,"18":-0.061115726429217226,"19":-0.025783619923043316,"20":-0.02202336187705716,"21":-0.05055945133154463,"22":-0.11109514391359186,"23":-0.0061919925763199895,"24":-0.17810606005481885,"25":0.10950087281568283,"26":0.10557331331773141,"27":-0.07638461711278771,"28":0.0846905467039316,"29":0.00440990539443313,"30":-0.21393417063227804,"31":0.2203031024045674,"32":-0.05229622470911922,"33":0.1282699747089327,"34":-0.04728785864587195,"35":-0.11947608670079019,"36":-0.151259295847044,"37":0.24537339756851287,"38":-0.16161617140108162,"39":0.1770004692479292,"40":0.07248339028654827,"41":-0.11150059765809642,"42":-0.1658951482296759,"43":-0.054146311257766325,"44":-0.17308624530101602,"45":-0.1191471508348787,"46":0.04967075092343624,"47":-0.06054066620531861,"48":0.09240520291236276,"49":-0.032903635128045186,"50":-0.11202133307565364,"51":-0.2073849980362718,"52":-0.06535540443353316,"53":-0.007703666470756075,"54":0.028709499254789154,"55":0.012800888618272561,"56":0.03751915799293145,"57":0.018722290572155204,"58":-0.13923036923303544,"59":-0.2678485243986059,"60":0.02929612654265938,"61":0.24823200915131374,"62":0.18880787194852694,"63":0.1638019135426041,"64":0.10947704312000675,"65":0.11947905547599816,"66":-0.17890570341930825,"67":-0.4352800863342584,"68":-0.034186237150915955,"69":0.2007246616307393,"70":0.2672874324547371,"71":0.1756772638842379,"72":0.22053505603636245,"73":0.0365452164100194,"74":-0.35196156656676236,"75":-0.22971742814649532,"76":0.14293664897512573,"77":0.1673810288313537,"78":0.16382756793026798,"79":-0.08252108331639961,"80":0.023022827159217208,"81":-0.25178591605740686,"82":0.010301902058369318,"83":-0.17033521336480123,"84":-0.14813056373342767,"85":-0.0008510481552570386,"86":0.12349891755203876,"87":-0.12112500926315047,"88":0.01302676429138426,"89":-0.1492140647880885,"90":0.10265672811904314,"91":-0.2648618344623169,"92":-0.13045239533086475,"93":0.04346571852120373,"94":0.15995487019252283,"95":-0.07014007436328151,"96":0.032139512014943465,"97":-0.1772294832354617,"98":-0.004946317770213472,"99":-0.3883454354667606,"100":-0.16337174797646672,"101":0.1810305986864509,"102":0.25507900160329006,"103":0.06581706894368615,"104":0.17267557666387384,"105":-0.32088392360535417,"106":-0.08142152671547993,"107":-0.32675736695451474,"108":-0.10331493023019711,"109":0.03417928105015489,"110":0.15859202522781637,"111":-0.4052344031924467,"112":-0.09974887665602707,"113":-0.28125753655432734,"114":-0.21336975804914027,"115":-0.20690165027663146,"116":-0.06882084353560791,"117":-0.2673610568913303,"118":-0.14639502144920036,"119":-0.16176120778686978,"120":-0.09728061383509352,"121":-0.18069246346734924,"122":0.030760719372724867,"123":-0.19774087456149028,"124":-0.13470608733505493,"125":-0.15659595542609223,"126":0.07793780259991769,"127":-0.21676297219588372,"128":-0.13075531692436193,"129":-0.23987212957518358,"130":-0.017414910953486906,"131":-0.19289818790247096,"132":0.07005339139480045,"133":-0.15656773769137014,"134":-0.28043845902228015,"135":-0.3452105545912612,"136":-0.22597324919505182,"137":-0.12057255911192004,"138":0.08444813133260833,"139":-0.30985594998635724,"140":0.027941375906440462,"141":-0.086318568910964,"142":-0.3923136117078698,"143":0.05859269095474199,"144":-0.3598313872943933,"145":0.04786899344850742,"146":0.18606922561860947,"147":-0.26381963384884044,"148":-0.10981708868429547,"149":-0.0442308277996813,"150":-0.330957003743351,"151":0.05967637680800317,"152":-0.30891890863016175,"153":0.013312640606198314,"154":0.12988846779922109,"155":0.009026068994678171,"156":-0.3253010253274453,"157":0.027861827012228887,"158":-0.20294911350244477,"159":-0.0550289857916948,"160":-0.15923090772497067,"161":0.01074545550715382,"162":-0.07009273605692722,"163":-0.18576948110271183,"164":-0.039703616898333384,"165":-0.06138012620650751,"166":-0.1372897777132781,"167":-0.13812354318706266,"168":0.04907976578240334,"169":0.25066715076868296,"170":0.10883773395638084,"171":-0.19628326310835306,"172":-0.19766282312150613,"173":0.08397262987511105,"174":0.008046585867515277,"175":0.0862945646159119,"176":-0.010625155744371327,"177":0.3336603770471176,"178":0.03200429581176964,"179":-0.07512087552879404,"180":-0.05212071717570313,"181":0.09693927579445163,"182":0.1423657335610904,"183":0.2692567884989485,"184":0.12220670622359069,"185":0.219827189139892,"186":0.07863514473369038,"187":-0.09267566587106195,"188":0.18602214922353036,"189":0.18281373562157688,"190":0.02782634141228055,"191":0.2508966141418183,"192":-0.014259608907822317,"193":0.14499293199846283,"194":0.1552024726258251,"195":-0.07623303304952106,"196":0.03317093683599815,"197":0.016973705614038444,"198":-0.0797670830862019,"199":-0.017443665960684883}},{"sx":5,"sy":5,"depth":8,"w":{"0":-0.017419348959417935,"1":0.0039024660480894936,"2":-0.020480611440752406,"3":0.1545057530901467,"4":0.09939072483287231,"5":-0.0017540534544599065,"6":0.014019913452123218,"7":-0.02530529497613026,"8":0.0490235712163693,"9":-0.08222181497771637,"10":0.09286059731605346,"11":-0.0380743676831296,"12":-0.130771379962445,"13":0.04093216841117411,"14":0.028789787799921987,"15":0.13136560610110432,"16":0.013897048331875455,"17":0.06348540859191369,"18":-0.004371448568595015,"19":-0.10785545804031911,"20":-0.06585179108710568,"21":-0.1342314879989905,"22":-0.024351468367251074,"23":0.13181994857543963,"24":0.13323917696286935,"25":0.09853088052390568,"26":-0.051827681761982804,"27":0.18339157574401407,"28":-0.13036894994395878,"29":-0.061950683983655885,"30":-0.062113883047768124,"31":0.18600262292431255,"32":-0.19144613619933618,"33":0.06260704332280582,"34":0.13136523118506194,"35":-0.04897861338219221,"36":-0.11094102065143904,"37":-0.12154585335126482,"38":-0.134286417328539,"39":0.12590548523212036,"40":-0.022023804422729186,"41":0.07281500112953024,"42":0.10464138896360575,"43":0.32545233959737524,"44":-0.042432136915454166,"45":0.02302506262449275,"46":-0.02046186296883041,"47":0.09972824432792662,"48":0.009777693585403464,"49":0.016666379549346272,"50":-0.23390527478284434,"51":0.0029035598143996562,"52":-0.07833311657442105,"53":-0.03781433224683474,"54":0.09747290387808955,"55":-0.04214403414209281,"56":0.25985854563026506,"57":0.08351919053654676,"58":-0.16629685039784406,"59":-0.053949465872361865,"60":0.023901439622437563,"61":-0.12621452328953908,"62":0.06626224081515317,"63":-0.16542544450077876,"64":0.0678890097044748,"65":0.2062219627448185,"66":-0.2470221755322028,"67":0.011163024920291772,"68":0.00338233965059919,"69":-0.2359286253017543,"70":-0.2851333009326689,"71":-0.051958978832453026,"72":0.04374829826455768,"73":0.11435921074601382,"74":-0.3387980802297524,"75":-0.0647310910586458,"76":0.10289627200732857,"77":-0.07895340055720157,"78":-0.28556918867280734,"79":-0.06506025075517864,"80":-0.23623262124446703,"81":0.14425590015735687,"82":0.022949147204110898,"83":0.16982187352795577,"84":0.12564598394096613,"85":-0.05861172870951216,"86":-0.17367978681057078,"87":0.10226676447837361,"88":-0.0753632698668316,"89":-0.1265647632480639,"90":-0.28642570079164587,"91":-0.23621128745437228,"92":0.04020742268439972,"93":-0.056098256158343934,"94":-0.08515065839876149,"95":-0.11049894144627596,"96":0.06526558718901163,"97":-0.008406058694323681,"98":-0.3414228938223386,"99":-0.22428558882004454,"100":-0.242135729535377,"101":-0.20556675115558984,"102":-0.0685899441451265,"103":-0.028022793245277993,"104":0.18934411306389037,"105":0.2385586983536678,"106":-0.06810299235013148,"107":0.027552624629417093,"108":0.07383072942368558,"109":-0.14186803331531875,"110":-0.14614709521401367,"111":0.07649284347707697,"112":-0.024568540642648747,"113":0.027843680982041055,"114":-0.023112358725606356,"115":-0.16239617691976704,"116":0.07109363386961762,"117":-0.020470870228242944,"118":-0.0590297733640547,"119":0.07514229866386832,"120":-0.22678989642060027,"121":-0.1830122480984952,"122":-0.15841848952277554,"123":0.12630263847147905,"124":0.3242137612275938,"125":0.22653803088627636,"126":-0.03349133653143816,"127":0.03404324540670764,"128":-0.23681927922460905,"129":-0.18323852851064198,"130":-0.2499440897580409,"131":-0.03738207255499842,"132":-0.18901519106701672,"133":-0.19002026053655838,"134":-0.04407872382606006,"135":-0.160356258172587,"136":0.18084572597883697,"137":0.05017911022056635,"138":-0.15328342807686376,"139":0.023632944663137735,"140":-0.37560211654936043,"141":-0.16713626820474808,"142":0.21327557951057644,"143":0.005358703265690634,"144":-0.006338552912263118,"145":0.14528059527168236,"146":-0.06783992678195448,"147":-0.09314661763174036,"148":0.00810055371844792,"149":-0.061592254586354936,"150":-0.04175415349941791,"151":-0.0573439287544216,"152":-0.036490839365953404,"153":0.07705654178542849,"154":0.07508669351524079,"155":-0.034871951967889524,"156":-0.09398828559179324,"157":-0.06299229649629391,"158":0.04992498268441093,"159":0.20618290757554927,"160":-0.022303996384779128,"161":-0.19701135522254287,"162":0.01206692425163338,"163":-0.08305468058874761,"164":0.08672231633133616,"165":-0.016465560556269136,"166":-0.02967695043202715,"167":-0.08095328303112305,"168":-0.33273274466799774,"169":-0.026141535552141743,"170":0.08945220483855214,"171":0.13612581512381172,"172":-0.15326834321729665,"173":-0.16658932863934786,"174":-0.013433376508722561,"175":-0.14495415116238253,"176":0.23307571417701664,"177":-0.022784085689064343,"178":0.13580756865310006,"179":0.07795006943505123,"180":-0.17886083973758857,"181":0.14502484519354478,"182":0.32506873762698496,"183":0.1034725091205384,"184":0.14699911703752963,"185":-0.1551853514869996,"186":0.12015584394427302,"187":-0.2351229611798545,"188":0.03097496681504302,"189":0.15653953639651433,"190":0.016784330738642526,"191":-0.031691782891588846,"192":0.08125630693425005,"193":0.06383765225650341,"194":-0.11862970881771794,"195":-0.3063553487632911,"196":-0.04605001464585296,"197":0.34696717227095686,"198":0.2293700616376647,"199":0.2491411837016423}}],"biases":{"sx":1,"sy":1,"depth":16,"w":{"0":-0.13315749306652044,"1":0.11209032017293186,"2":-0.020665796373176087,"3":-0.055738848276321896,"4":-0.05775009661330766,"5":-0.19928307269740342,"6":0.047062997058924826,"7":0.009815823236038893,"8":-0.059989646307511135,"9":-0.024828897047102838,"10":0.028632238160197724,"11":0.047145378189399206,"12":-0.03807800813428935,"13":0.03326111262137087,"14":-0.1239592949615003,"15":-0.11359718356309675}}},{"out_depth":16,"out_sx":12,"out_sy":12,"layer_type":"relu"},{"sx":3,"sy":3,"stride":3,"in_depth":16,"out_depth":16,"out_sx":4,"out_sy":4,"layer_type":"pool","pad":0},{"out_depth":10,"out_sx":1,"out_sy":1,"layer_type":"fc","num_inputs":256,"l1_decay_mul":0,"l2_decay_mul":1,"filters":[{"sx":1,"sy":1,"depth":256,"w":{"0":-0.2598075207801611,"1":-0.09795539936479564,"2":-0.2267756535203274,"3":0.05431132011947604,"4":-0.03624595833200673,"5":-0.01966090724390106,"6":-0.09632094300025927,"7":-0.15372847595671438,"8":-0.0430765636389441,"9":-0.05054010311106562,"10":-0.039224835144659485,"11":-0.22982250328031625,"12":-0.14720814636579713,"13":-0.08140601751337277,"14":0.04433266613576964,"15":-0.17523362669765843,"16":-0.06683099458135738,"17":-0.15923823978296206,"18":-0.0793586143635665,"19":-0.07654178650856841,"20":-0.042405373704755174,"21":0.033588546112386576,"22":0.009239528528770824,"23":-0.29798721877687717,"24":-0.08198741479544497,"25":-0.0025690643387592926,"26":0.16098095865665138,"27":-0.012700488414728824,"28":-0.2010085819465551,"29":-0.03604766915062005,"30":0.023479566284095494,"31":-0.26263487807163616,"32":-0.04516129134821637,"33":-0.2507043122393442,"34":-0.025628932677091654,"35":-0.2152414476373405,"36":-0.15606098609871663,"37":-0.03384050345233395,"38":0.11568932472097941,"39":-0.11171455512652106,"40":0.10573004845627257,"41":0.00519407120794011,"42":0.09841427708015109,"43":0.05142611626510354,"44":-0.0837110829070763,"45":-0.0790585454164205,"46":0.01650321055579835,"47":-0.16834746244188767,"48":-0.08259536823097911,"49":-0.19834988898073372,"50":-0.24684925599551819,"51":-0.21911151609283108,"52":-0.14128878119188923,"53":-0.08487773996817304,"54":0.01769825394274177,"55":-0.06000180733863718,"56":0.04267568188400016,"57":0.016120061609075958,"58":-0.02962988302255318,"59":-0.18986149363880667,"60":0.048912191989186365,"61":-0.15242902477868742,"62":-0.05094722053636025,"63":-0.34067584841972076,"64":-0.4538064345783072,"65":-0.09439786368878424,"66":-0.34044374056283844,"67":0.161432430406582,"68":-0.04634938327932665,"69":0.08073095907452335,"70":-0.13546024661993486,"71":-0.30099148406396375,"72":-0.019035147985617333,"73":-0.20046010158764746,"74":0.009866499339210336,"75":-0.16220341346378195,"76":-0.04198348376609683,"77":-0.28756984079734726,"78":-0.15477374669059946,"79":-0.09343673924575942,"80":-0.2768384414008526,"81":-0.09220823983981616,"82":-0.2683795378063667,"83":0.022570057824417455,"84":0.03457382434983777,"85":0.061933454734443026,"86":-0.025044864247466516,"87":-0.06594217194270188,"88":-0.12696270250698546,"89":-0.018457901063262016,"90":-0.07182395812829721,"91":0.024221464221615797,"92":0.0016968109229145946,"93":-0.028661922196028485,"94":-0.26329585314945847,"95":-0.2928646649620317,"96":0.12344948911631284,"97":-0.1617593626198695,"98":-0.1150447191853843,"99":-0.14291604901187427,"100":-0.13988040784281922,"101":-0.047290064916169085,"102":0.06847186668206398,"103":-0.18907106428793943,"104":-0.07273778707603014,"105":-0.08991126613287259,"106":-0.01141967187161125,"107":0.09432504305586653,"108":-0.162230934824966,"109":0.02246733791247349,"110":-0.19330313976272454,"111":0.008328836566744649,"112":0.2706917951079724,"113":-0.18936745580995065,"114":-0.1452113281578298,"115":-0.07340158900806468,"116":-0.03364501071164112,"117":-0.12890153058844242,"118":-0.0691701566958287,"119":-0.21692247503569748,"120":-0.2713633687765082,"121":-0.043755869900654464,"122":-0.06337869202640642,"123":-0.061264552914670596,"124":0.0825043578265142,"125":-0.046612921621376875,"126":0.06098245778426151,"127":-0.1730146492098816,"128":-0.07906986490691657,"129":-0.03753493921782896,"130":-0.14094001353448204,"131":0.13292803347989154,"132":0.04304143842848117,"133":0.07704663710633722,"134":-0.1338789741940333,"135":-0.3446430404248977,"136":-0.3495613599086582,"137":-0.14137474909153633,"138":0.13685769492402386,"139":0.0018583049426107578,"140":-0.2308295142825272,"141":-0.30149682987367893,"142":-0.5350702994919461,"143":-0.04792006140103173,"144":-0.26817267300920244,"145":-0.009118156441891878,"146":-0.11414968726991374,"147":-0.3224752765220412,"148":0.12768794041659012,"149":-0.08539054153151257,"150":-0.22429197750048385,"151":0.11989437490608713,"152":-0.05232570280341397,"153":-0.041767118458634636,"154":-0.151925283952609,"155":-0.1327231546181996,"156":0.027114933071415433,"157":-0.12186717737377704,"158":-0.5231206304144924,"159":-0.09937383929864445,"160":-0.0012465991983678832,"161":0.06844020884390768,"162":-0.08928708999406776,"163":-0.3847428539992371,"164":0.17158476723530672,"165":-0.1096714926644458,"166":-0.2704694614768872,"167":-0.014394106647512181,"168":-0.027642869926285337,"169":-0.12252479763621815,"170":-0.06968526596349152,"171":-0.04661785214417736,"172":0.06780249423063683,"173":-0.153231177500872,"174":-0.06603266745724479,"175":0.06504772725562052,"176":0.12574294084426918,"177":0.20881715933256015,"178":0.028425712890472535,"179":0.03529095284841928,"180":-0.0358673934613723,"181":-0.1555082191283946,"182":0.11185362013756746,"183":0.03557132720658098,"184":-0.49059767283747957,"185":-0.16555418156824567,"186":0.12868831965550695,"187":-0.024833308732492357,"188":-0.20928887207100733,"189":0.1551409871330144,"190":0.12833846756174985,"191":0.09691631008662806,"192":-0.014222200023703382,"193":-0.022297778408820516,"194":0.0815188120323223,"195":0.05689887665925949,"196":0.11950418149158001,"197":-0.013033065705959994,"198":-0.03845332279223023,"199":-0.01019964026595503,"200":-0.03604275976275136,"201":-0.062613267237668,"202":0.032175080711557724,"203":0.026177277159367615,"204":-0.25574169006684133,"205":0.028358022857876756,"206":0.08115603255889318,"207":0.20453929504048896,"208":-0.0014664870341540228,"209":-0.3107526354799459,"210":0.02150788939438875,"211":-0.06264475206631266,"212":-0.15337087727321602,"213":-0.04691161610644027,"214":0.08434617113167597,"215":0.1096768159001979,"216":0.053305564701267474,"217":0.09003801277521677,"218":-0.4772669355099939,"219":0.05607409317786606,"220":-0.05187494397938479,"221":0.012098304332855891,"222":-0.04625579082279525,"223":0.022513041138018167,"224":-0.3291072325855245,"225":-0.0485835501755995,"226":0.05483958270878353,"227":0.030434968018432092,"228":-0.3841305057005249,"229":0.16965411455339788,"230":-0.06606630193291178,"231":-0.19706668298870617,"232":0.15378374326684952,"233":-0.06166083062606859,"234":-0.12231021906389584,"235":0.0862741019699649,"236":-0.12511393294166956,"237":-0.07154788180950278,"238":0.015465413375858507,"239":-0.4231734306513001,"240":0.020098011246622707,"241":0.1257017734889873,"242":-0.16276198573992245,"243":-0.015739024034517955,"244":-0.28760018639211543,"245":-0.07242174231446465,"246":-0.10835656026613762,"247":-0.02171538392697439,"248":0.06611082934401422,"249":-0.24931590681044163,"250":0.17580526178730077,"251":-0.07229943770581305,"252":-0.2703990636536096,"253":0.25637081942024137,"254":0.014604467509731179,"255":-0.14740974920289956}},{"sx":1,"sy":1,"depth":256,"w":{"0":-0.04519271396553904,"1":-0.0034362915077547447,"2":0.06867228477642232,"3":-0.18906738409509294,"4":-0.31954206016798276,"5":-0.20978002569924534,"6":-0.1402213533541795,"7":-0.05652310396626664,"8":-0.09439336853525732,"9":0.00919587135433656,"10":-0.10978351724219362,"11":-0.14528603998178075,"12":-0.13978627818686543,"13":-0.056917791110537665,"14":-0.2355356237566535,"15":-0.02393389247064029,"16":0.04122490271165917,"17":-0.25719159478051734,"18":0.006496088805508447,"19":-0.026295952959888968,"20":0.006573132698044234,"21":-0.22562374849937977,"22":-0.0866453555735343,"23":-0.14928885779081794,"24":-0.0896903103208113,"25":-0.08200906080039498,"26":0.13956748567862065,"27":-0.034028579893083666,"28":-0.07437782834686192,"29":-0.11890731490284574,"30":-0.1647036733444325,"31":-0.1208226382030946,"32":0.021189433258968368,"33":0.08170013284974179,"34":0.03312897977278194,"35":-0.01185738042520841,"36":0.2719586318091751,"37":-0.0494203346963706,"38":-0.1593826955790362,"39":0.07228612943186555,"40":-0.13884001133240723,"41":-0.31724404048292276,"42":0.2568605872562684,"43":-0.33210742738356636,"44":0.28772753973876314,"45":0.13303622540247917,"46":-0.01122297453677476,"47":-0.013008315926566129,"48":-0.05411221646862814,"49":0.051965490876982566,"50":-0.08164879088954376,"51":-0.30026974962166997,"52":0.08958010320222225,"53":0.040403966800445335,"54":-0.07821336122347158,"55":-0.04787719407767234,"56":-0.12895592841108544,"57":-0.007550045688119524,"58":0.0387178470935763,"59":-0.12692627359128317,"60":0.02576724314289433,"61":-0.08740738552719321,"62":0.06047227559499387,"63":-0.0035948156756610197,"64":-0.21645137438067474,"65":-0.08153765449260449,"66":-0.31046220805546043,"67":-0.20509654918131773,"68":-0.5611881420277324,"69":-0.28421117966881215,"70":-0.07745169614372722,"71":-0.12188289976946114,"72":-0.0764817841756904,"73":-0.21196073902715198,"74":-0.3213380646615819,"75":-0.22326902241929414,"76":-0.028376720269131076,"77":-0.17536365233259912,"78":-0.19274513419613937,"79":-0.2590796126594426,"80":0.0014958909041318334,"81":-0.2731613255850467,"82":0.0921929477496037,"83":0.08351951617129623,"84":-0.03280562301162863,"85":-0.32237938976513064,"86":-0.06781522115572224,"87":-0.11404574644016806,"88":-0.02884977273524439,"89":-0.238539360692894,"90":0.08946607514046849,"91":-0.058922386485703394,"92":-0.18469471261525605,"93":-0.1069472797667265,"94":-0.12182476254249915,"95":-0.2760293671000918,"96":0.07903177476992829,"97":0.12163234908461676,"98":-0.056816883458606575,"99":-0.10696137514932835,"100":0.19789393118826695,"101":0.007673692068861731,"102":-0.04636940015826556,"103":0.12043648979081464,"104":-0.05117071260871813,"105":-0.37331287224536475,"106":0.25741386229923546,"107":-0.23940733999122935,"108":0.1381001735649229,"109":0.186585150421866,"110":-0.008374757037474612,